0
0
0
0
0
0
0
0
0
0
0
0
0
0
0
0
0
17
-32
2
-26
14
2
-11
-5
11
-44
-41
23
0
0
4
-15
-24
-2
-10
-15
-7
20
1
21
0
-13
0
2
0
2
0
7
-5
1
13
-9
0
-15
17
1
21
-1
3
0
-8
0
0
-43
76
-41
-12
0
19
53
-41
-13
17
-44
-24
67
-35
-1
-6
0
0
3
10
1
9
-4
0
0
0
4
0
-3
0
-4
0
-6
-28
0
-27
0
-9
29
2
0
1
0
1
9
0
0
3
-10
-2
0
34
-2
-3
-35
0
3
0
-18
-8
26
0
3
-18
-4
1
-31
1
0
0
17
-7
-7
7
-19
-36
8
-9
-10
18
13
-4
-2
-4
4
-1
0
0
-4
2
-2
0
6
0
2
0
0
1
0
0
0
4
-1
-2
0
0
0
0
-5
3
0
-3
-1
0
-5
0
-2
0
2
0
0
2
0
-6
0
0
0
-8
0
-4
-24
-20
7
-2
41
-22
-14
0
2
6
13
0
2
0
33
-3
-3
19
-3
6
-21
-3
12
0
-1
0
8
0
0
-12
0
0
-3
-9
-28
6
34
-4
-2
0
0
-5
0
0
0
18
-48
22
4
-15
-7
-20
0
-1
-11
-40
4
53
-6
-2
24
-16
5
3
0
0
5
-7
-12
-3
0
-6
0
1
0
0
0
0
0
-15
0
0
0
8
3
0
-15
13
0
-20
-43
-19
0
0
2
17
1
-3
3
-14
7
7
-17
0
5
0
3
-17
2
0
-12
11
-7
0
34
3
-46
-42
13
-45
-1
45
-10
0
-5
-56
0
0
0
0
0
0
0
0
0
0
0
0
0
0
0
0
-1
-31
29
0
0
-24
40
0
22
-13
21
23
8
9
-12
43
0
0
0
0
0
0
0
-1
0
0
0
0
0
0
0
0
2
0
25
0
15
0
0
-17
13
11
33
0
-2
9
0
1
0
0
1
-8
0
0
0
0
4
1
0
3
-8
7
0
6
0
-27
-3
0
0
-7
38
-2
-10
0
4
6
0
-5
15
5
-67
0
35
-29
-23
-9
28
38
8
-32
13
46
18
6
0
19
-26
14
0
0
11
-10
2
22
-22
-9
-9
15
20
-18
21
0
-1
17
-25
-29
-6
0
19
-3
6
11
-2
5
5
-5
0
0
0
0
9
-30
-3
-11
10
0
21
0
3
0
39
17
3
5
26
-5
11
46
-13
-24
0
59
-28
28
-26
-5
-4
-59
6
40
0
0
0
0
0
0
0
-17
0
0
-1
0
0
0
0
0
10
0
16
7
0
7
-1
-5
0
-7
0
0
0
0
-11
-1
0
0
0
0
0
0
0
0
0
0
0
0
0
0
0
0
14
0
9
1
1
1
-2
0
0
0
0
1
0
0
0
0
-4
13
-40
-1
8
-18
0
0
-4
0
-13
-14
45
-11
0
-6
-13
-6
-1
-2
-18
-23
-2
0
-8
-7
-12
28
23
-39
0
-7
0
2
4
0
0
-2
0
12
0
-2
6
0
9
-3
1
13
-14
-38
3
0
-14
-22
-11
-1
-6
16
1
-28
8
5
3
5
0
-7
0
38
0
3
-38
0
0
-8
-5
21
-12
0
0
-21
-53
32
-9
0
-36
37
28
-23
-7
-3
0
-15
61
-19
0
31
4
0
-3
27
2
0
-17
-28
16
-28
-23
5
2
3
0
-4
3
0
-15
-24
1
-14
3
0
-10
30
4
-18
-1
11
0
-1
-12
9
-7
-20
0
0
0
-8
-1
-10
-2
0
10
-6
0
-2
-11
12
-37
6
0
-19
-26
0
-36
-8
-29
9
0
-29
15
-35
13
-4
9
1
1
1
0
11
-31
11
-8
-1
-36
-14
-10
0
1
-2
-5
0
2
-8
0
0
-11
11
2
-6
3
-13
0
4
-3
30
20
6
-20
3
42
-3
0
46
24
0
-25
-21
-3
23
0
41
2
-3
1
45
0
-21
22
21
0
-2
-11
17
-62
12
5
0
0
1
5
9
-7
4
3
-1
0
0
23
0
-1
5
5
2
6
3
9
0
2
31
-2
35
-10
-14
-18
0
0
0
-45
0
0
0
15
-64
-3
0
-42
-26
-4
34
2
-24
12
-39
0
12
0
0
0
15
2
-11
7
0
0
0
3
0
0
2
0
0
-8
0
0
-1
2
-3
0
1
0
0
0
0
0
0
33
-12
10
5
14
0
8
0
-4
30
0
-33
-13
0
0
26
53
-22
-56
-3
63
5
3
-36
-34
0
35
0
-8
24
12
-34
-23
-23
6
-27
-15
-26
7
38
37
0
8
2
51
14
1
23
-12
-11
11
-35
-7
15
-1
0
38
-9
-10
5
-12
-1
-17
0
-5
17
2
22
2
-24
-48
0
-7
-15
0
1
3
-23
8
-23
-2
0
0
-14
0
0
0
-17
3
-1
9
0
0
7
-2
-9
0
0
0
0
0
0
0
0
0
0
0
0
0
0
0
0
17
0
-28
14
10
-5
-23
-68
-17
25
-29
-28
33
-9
5
-31
-1
-10
-40
-1
0
2
23
-3
-21
7
-22
-15
5
14
0
19
-20
0
19
-44
-24
-2
67
38
10
-6
14
2
9
22
0
18
-25
4
-26
-4
0
0
-7
0
10
0
-17
-30
30
6
8
1
0
-11
-2
9
-2
-59
-7
14
1
9
-44
0
16
-10
3
-1
0
0
-1
17
-1
-5
0
5
8
8
-22
-17
0
-17
0
12
2
-14
0
11
0
14
10
-1
0
0
41
11
14
4
0
28
-17
3
6
0
15
29
-1
10
3
-3
18
14
-59
-8
-12
0
4
-8
0
16
-6
0
0
15
4
6
-4
0
-20
2
0
9
0
9
13
0
-6
1
13
2
0
1
-1
0
-15
-16
0
16
-6
-1
5
0
0
0
0
3
2
0
4
4
1
0
1
0
2
0
1
2
0
2
-3
-2
-1
0
1
0
0
2
-3
0
0
1
7
7
3
3
-6
-1
8
0
0
0
-1
0
-9
0
21
0
-20
4
1
0
0
0
-39
11
-5
-4
0
-7
7
5
24
29
0
7
2
5
-6
-16
15
0
8
8
12
1
-8
-11
0
0
0
4
0
0
0
1
0
0
0
0
0
0
0
3
-12
4
0
0
0
-1
0
0
-22
-14
0
23
-1
-28
0
-14
0
9
-5
-4
0
1
4
0
0
0
0
0
0
0
0
0
-4
0
0
-3
0
-3
0
0
8
0
0
0
5
-6
0
2
-2
0
0
0
-6
12
-29
0
45
0
-4
1
-6
0
0
-17
20
-6
27
26
0
13
0
57
0
0
11
-4
-12
7
-8
9
0
0
-15
0
-7
-1
6
0
-7
0
0
0
1
0
0
1
4
-31
13
0
-21
-3
-2
6
-15
26
-14
-1
0
-35
-1
0
0
12
0
0
0
0
2
0
-1
0
0
0
-3
0
-1
1
46
14
21
32
30
21
-17
-1
30
-15
13
-13
0
33
-13
-18
17
0
23
25
7
8
1
2
-21
55
-12
5
-16
0
-4
14
-13
0
-4
-8
0
-14
2
2
-2
0
0
1
0
-9
7
0
-2
0
23
16
1
-6
0
8
-17
18
-28
8
-22
0
0
24
-12
-5
2
0
8
3
14
13
0
6
9
6
-1
0
0
-2
-3
0
0
0
0
0
0
0
0
0
2
11
-8
7
0
16
0
17
0
12
-11
0
0
3
-20
41
-26
-7
19
-59
0
12
-7
6
-1
0
0
15
27
-25
-10
0
0
0
0
-2
0
0
-8
0
-28
5
-21
0
13
-4
0
0
-35
0
3
-11
4
24
38
31
0
23
29
21
-1
0
16
-8
21
31
-43
12
-25
-18
0
0
0
0
0
-1
0
0
-1
-15
-2
1
1
-17
0
0
-3
-6
4
0
-4
4
0
-1
0
-3
2
6
0
0
0
25
-17
-1
-16
31
22
-5
-29
-27
0
-45
0
-21
-3
0
27
-15
0
-13
14
-11
-36
-9
0
14
48
-7
-13
-9
4
7
0
40
-11
-16
-25
-2
19
-23
-18
-17
-19
0
11
-5
-25
12
4
-6
0
-10
-4
-5
8
-7
6
0
-7
3
4
0
0
5
3
0
8
0
4
0
0
0
0
-2
0
0
0
0
0
0
-2
0
-25
28
-27
-21
5
-53
16
13
-19
-31
-26
14
66
-49
38
2
19
6
0
7
1
20
-5
-20
38
-16
5
0
0
13
-14
-17
-5
20
0
2
16
0
0
-40
-9
-28
-4
32
15
-40
0
-22
0
0
0
0
0
4
-14
0
5
0
0
0
0
0
0
-7
10
-8
21
10
5
-27
0
14
-10
28
-11
-1
21
-8
13
17
-1
16
11
5
7
0
0
-2
27
0
8
0
0
0
0
-20
15
0
0
34
-23
20
1
41
0
60
-32
-10
-12
-58
1
14
0
0
7
13
0
23
0
-9
0
-4
0
5
0
7
0
-11
0
1
-16
-1
-14
7
0
0
-5
5
0
0
-17
-6
-6
2
0
-3
0
0
0
-1
-3
0
0
0
-9
0
0
0
0
-7
0
0
-1
-3
0
0
15
0
-5
17
0
-6
0
0
0
0
1
0
0
-8
3
0
1
0
0
0
0
-3
3
0
1
0
42
0
0
0
6
3
0
4
-18
32
0
-26
-13
-4
0
0
0
0
0
0
0
0
-1
0
0
0
0
-2
-2
1
0
-1
39
-4
0
6
0
4
14
8
-10
23
-6
-10
-2
-26
0
10
11
-3
3
6
5
0
16
0
-22
28
-4
-13
-18
0
5
2
-5
0
-27
-7
22
-3
0
-27
-33
18
11
-6
-9
26
0
0
2
18
-14
20
-10
14
49
-20
0
50
-34
-45
43
0
-19
0
-6
6
0
0
12
1
-10
-8
0
-5
0
10
0
18
-1
-7
5
5
27
5
0
17
0
-1
0
-25
31
0
-2
0
-1
-2
0
27
0
-12
-7
-9
31
31
-13
0
22
5
25
5
16
38
14
0
6
-8
12
18
0
-10
12
0
2
1
1
0
-6
-27
0
-11
0
0
2
10
0
0
0
0
0
1
0
0
0
0
0
34
-9
-3
15
-18
-3
-5
-15
-26
34
13
0
-6
0
0
15
-15
8
0
7
-43
-2
12
-39
4
1
0
1
-4
1
-4
-11
0
10
0
0
-2
0
9
0
-8
3
12
0
2
0
0
6
30
2
-1
50
-4
-14
-33
-28
-30
4
24
14
-20
5
-36
-5
4
0
0
1
-9
0
3
0
-5
0
3
-1
0
7
-4
5
-25
4
5
1
3
-4
0
27
-2
0
-1
7
18
-3
0
22
4
8
0
23
-11
-7
13
-2
-4
0
-4
3
-17
24
-2
-1
0
0
0
-4
-2
-3
8
15
-2
0
-8
6
66
-5
22
-11
-1
-5
3
-22
-22
-19
30
33
0
0
5
1
25
1
8
0
0
-4
0
0
0
-12
-3
7
0
-9
-10
-5
8
-2
-4
-1
36
12
-2
45
-4
0
16
-3
-20
11
42
-5
0
1
-44
4
1
12
15
0
-1
-20
-13
19
-19
-10
0
0
-1
0
-32
0
0
6
0
12
3
-3
0
-12
7
8
0
-13
0
0
0
0
0
0
0
0
-3
0
0
-2
0
1
0
0
0
0
0
36
-27
16
37
0
-40
-9
26
-17
42
-16
-9
37
4
21
3
14
-42
-2
-35
46
-53
-10
-32
-16
53
36
-51
-3
32
0
-1
10
0
-1
14
0
0
0
-4
-12
3
0
-1
0
0
5
0
0
-3
1
-2
0
0
1
0
0
0
0
0
0
4
0
0
16
3
9
0
0
5
0
0
16
0
9
14
0
12
-9
0
-2
0
0
0
0
0
0
0
3
0
0
0
-1
0
0
0
0
0
0
0
0
0
0
0
0
0
0
0
0
0
0
0
10
0
0
-10
10
0
15
35
0
-8
1
0
-27
37
-2
8
14
-1
0
2
0
-18
-2
17
-7
12
2
0
-14
-2
0
0
8
6
4
23
0
2
0
1
-6
9
0
0
-11
-41
0
0
0
0
-12
-11
0
-14
-9
-12
0
0
0
-25
-5
0
11
-9
4
13
31
18
14
41
-7
-29
-6
-14
10
18
0
-4
-13
0
-33
21
-28
-3
-5
2
25
0
-17
0
-41
-3
20
-53
0
11
0
0
-1
-11
0
-5
-3
0
3
0
3
0
0
4
0
0
-48
11
6
10
23
-38
-13
-2
-8
-6
-6
14
25
-43
30
-13
0
-1
0
-2
2
-10
-6
-1
-13
0
-1
0
-18
0
0
0
-26
21
9
-15
15
-45
7
9
-10
-24
-1
43
33
-26
19
-10
1
12
0
5
6
0
0
6
7
0
0
6
-5
0
-4
0
10
5
3
0
15
16
-9
0
-5
0
31
9
-22
10
-3
0
0
-9
-1
-28
0
-10
17
8
-4
0
17
-12
0
23
4
13
6
0
-2
-1
12
0
2
0
0
0
13
-6
-11
8
0
8
0
2
0
5
2
0
-8
-6
0
-1
0
1
-5
6
0
-9
-18
-18
3
-32
-20
-1
19
6
7
0
33
-3
0
39
-12
35
-41
0
-7
-2
0
-23
0
8
-20
-10
-1
12
6
0
6
-5
11
0
0
-6
3
0
14
-8
-2
9
2
-8
-15
7
0
0
11
6
-2
-9
5
0
9
-3
0
2
8
-18
-12
6
0
-3
-12
-5
3
-7
-6
2
-1
5
15
0
0
2
-7
4
-1
0
-5
17
-25
5
0
0
0
-16
4
0
-10
-10
6
0
0
-2
13
-12
-8
-4
3
-13
19
-9
-11
26
20
-17
-9
3
0
-7
-1
-3
-56
10
-34
-15
-19
0
15
3
-59
-40
10
4
0
-26
19
18
7
3
13
0
0
-2
0
-5
17
0
-41
0
-23
0
-20
17
-1
-22
0
11
16
-6
0
1
0
-8
0
0
-7
4
0
0
0
0
0
0
0
0
0
0
0
0
0
0
0
0
-4
0
0
0
0
-11
0
2
-4
-3
0
0
0
-12
16
-2
-5
2
18
11
-4
-19
-22
-8
31
-5
0
8
10
3
-25
-8
7
-4
39
34
0
-8
-7
5
-42
22
-2
-1
-12
-26
-10
33
18
4
7
-13
14
32
1
-16
7
0
19
6
-20
6
-24
-34
0
12
10
31
5
0
-26
0
5
0
9
22
-7
-4
0
-18
-25
9
0
0
13
-1
2
0
-6
8
-6
0
15
-36
11
0
16
0
-6
31
-5
0
0
20
0
26
-11
-5
-4
-7
-3
0
-7
1
5
1
0
11
0
-5
-5
12
0
9
0
0
-2
19
0
0
0
3
-2
0
0
0
0
0
0
0
2
-9
0
0
8
0
3
-40
6
2
0
-47
0
12
28
-4
-15
-2
1
-5
0
-19
-9
12
-2
0
0
7
0
2
0
-11
-6
0
0
0
-2
6
0
0
0
-6
-4
-2
-2
-1
-5
0
0
0
10
0
0
0
2
2
0
16
-9
0
2
0
0
6
0
0
0
-9
2
0
0
0
0
0
0
0
0
0
0
0
0
0
0
0
-14
-1
-47
0
-17
-1
-9
0
4
14
-21
-28
-9
10
0
-7
-1
-4
-49
-1
-22
-3
-7
-14
0
31
-47
-60
36
4
-2
0
-4
23
-19
-1
-1
3
5
-26
-12
4
-16
0
25
0
9
0
-19
6
-9
-33
3
10
20
-8
0
-6
6
-8
29
-7
0
5
0
0
0
0
0
1
0
0
0
0
0
0
0
0
0
0
-3
0
-8
7
0
7
-10
0
-9
18
5
-8
-15
9
-10
-5
-14
31
-40
0
-6
13
-11
-38
15
-34
0
0
9
15
-4
0
-8
3
1
-12
0
0
-1
7
0
0
-1
-2
-7
0
0
13
0
-5
43
-1
0
4
0
-5
0
-14
0
24
-16
0
-14
0
-3
0
-26
0
-3
0
2
-9
-3
5
0
-22
0
0
0
2
0
0
-26
0
-36
0
-7
0
55
0
0
-5
4
17
-3
0
-27
10
-25
-31
-15
0
28
0
-4
-2
0
-26
0
0
0
11
-14
-22
-27
0
-6
0
-3
0
3
4
-14
-2
-11
-5
0
-1
9
0
-30
45
-14
-8
0
16
32
3
0
-35
0
13
0
-17
0
0
0
0
0
1
0
7
0
4
0
0
0
0
0
0
0
0
4
0
0
2
0
0
4
0
0
1
0
0
-2
-2
8
9
0
6
0
-7
2
4
-4
5
-7
0
0
0
0
8
0
-25
0
-6
16
8
0
8
0
3
-15
-8
-17
0
-14
22
0
0
0
0
0
0
0
0
2
0
0
0
0
0
0
0
-9
2
0
-11
0
-7
10
16
-3
6
0
0
9
-3
4
18
3
0
-9
0
4
15
-3
0
-20
2
6
0
0
0
0
-3
15
11
5
25
6
24
-9
-5
23
-6
2
0
0
12
-15
-5
21
0
-7
9
0
7
-19
-24
7
0
0
-16
19
0
0
-23
-2
1
-4
3
-3
2
-4
1
15
0
0
0
-5
3
0
-3
0
0
-6
0
0
0
0
0
0
0
-4
0
0
-7
0
0
-5
-4
2
-8
-21
-25
9
24
6
-17
-5
-1
0
0
33
6
0
-6
-18
9
0
-37
-26
-5
0
0
-50
-12
12
0
8
-36
16
-1
-5
1
11
-8
-6
-6
14
15
0
-12
0
0
-2
-3
-15
1
38
-18
0
13
0
11
9
-4
29
28
-18
20
-5
45
0
0
0
0
0
0
8
3
0
0
6
0
0
10
0
10
2
0
0
0
0
0
0
0
1
0
3
2
-2
0
0
0
0
9
14
15
16
1
-5
-14
0
0
0
9
-3
0
-13
-8
16
16
4
9
9
20
-18
-19
16
-19
12
6
2
8
-23
-17
7
-13
2
-21
1
-16
0
11
0
2
7
0
17
4
8
4
18
-20
5
-7
-1
-18
5
24
0
2
3
6
12
-5
4
17
-2
-8
0
-10
-1
0
2
13
0
-5
7
9
0
0
-2
1
0
0
28
-11
0
2
5
2
19
0
3
2
-12
1
-1
0
1
0
0
0
0
0
0
-1
0
0
0
0
0
0
0
1
0
0
-7
-1
0
0
3
-1
-19
6
0
-1
0
-6
0
0
0
-4
13
-33
24
0
0
-4
10
0
14
-10
0
20
7
0
0
5
0
0
0
0
0
-6
-5
0
-1
0
4
-6
0
0
20
0
0
-10
20
0
4
0
0
0
15
-6
-8
10
0
0
-12
-6
16
3
-1
7
0
8
12
-22
0
8
-9
1
-2
0
0
-10
-8
4
-5
0
-15
4
10
0
-12
5
-10
0
0
0
1
0
0
8
12
4
-16
0
0
1
0
0
0
0
0
-18
0
12
0
0
0
10
16
-22
0
0
0
4
0
-3
0
5
-2
2
0
0
0
0
-1
0
0
0
0
0
0
-21
0
-3
-25
0
0
-13
-2
-7
35
14
-26
-6
26
18
20
0
18
7
0
-1
-13
-19
-5
26
38
-10
-17
50
19
-19
0
0
-2
37
-14
0
-19
4
0
-5
-31
0
18
-8
4
-12
-25
9
0
-34
-19
18
3
0
9
-4
-3
6
-5
0
0
8
15
-13
1
-2
-6
0
18
-2
-9
0
1
18
36
-3
0
2
0
35
0
3
2
20
17
0
20
4
0
2
-8
0
34
51
-8
4
-20
11
-7
13
0
23
15
8
-9
-7
1
-4
19
22
-12
-1
-28
-13
13
-5
0
0
0
-5
-25
-12
3
0
0
0
0
11
0
-14
0
0
-10
-17
-6
0
3
3
0
1
9
0
-8
4
0
25
12
-3
0
-4
13
-3
8
-1
-2
9
14
0
-9
-2
0
-3
1
0
0
10
0
-38
0
22
0
19
-1
-10
0
-17
0
0
-2
9
-14
-6
3
0
0
-2
0
-12
-1
0
-11
-4
0
0
-19
-11
17
-37
-4
-12
17
30
-5
-16
19
16
0
0
0
24
-11
0
0
0
0
2
0
0
0
0
-4
0
-4
-7
0
0
0
-1
0
-24
0
0
32
-9
0
16
20
-24
7
48
0
0
15
0
0
-1
7
2
16
-8
-21
6
4
-2
-3
2
0
5
0
-5
5
0
0
-5
3
1
0
18
-27
-25
-3
-10
0
4
7
-13
-33
3
12
-17
-8
-5
38
-5
-6
-6
1
19
0
-33
41
0
-1
46
0
-26
-23
1
17
8
-1
-36
1
-1
0
0
5
-3
5
0
0
16
0
0
15
0
5
0
-4
18
0
1
-2
0
1
-18
0
-1
-2
1
0
0
0
6
-1
0
0
3
0
-23
-3
6
-4
-9
-15
7
3
0
-5
-24
-4
11
1
-22
1
-6
19
-30
3
-37
23
-4
16
-6
30
0
47
30
17
2
10
16
-9
2
8
6
0
-17
4
5
5
-4
-18
15
0
0
-21
-13
7
-7
-21
-2
7
3
43
0
9
0
13
19
0
8
-12
1
25
-1
0
11
13
0
21
2
6
0
0
0
-13
3
11
-11
0
-3
0
-8
10
0
1
3
13
0
3
4
0
10
23
0
0
4
0
2
0
-15
6
-16
4
0
-11
12
-11
-12
-31
0
0
-27
0
18
30
-1
0
-10
0
0
-7
0
0
-3
0
5
46
0
0
0
0
0
18
8
0
46
-1
-7
-4
1
0
-4
0
8
21
-32
-5
5
-20
0
-21
0
0
0
0
0
8
4
-1
4
2
6
-3
1
0
0
5
4
0
0
0
-1
0
-1
-7
0
-1
2
0
-2
0
0
0
0
3
0
0
0
6
-3
14
11
0
-14
0
9
-7
10
0
-2
8
0
3
12
21
0
11
0
17
13
-14
-18
0
0
0
10
0
15
-12
-12
2
0
0
0
0
3
-5
0
0
0
5
3
0
0
-5
0
0
-1
0
17
0
0
-5
5
0
9
-10
-5
-5
0
0
0
0
0
0
-7
3
0
4
3
0
0
7
-3
-4
4
3
1
0
0
0
0
0
0
0
0
0
0
0
1
0
0
0
0
0
0
-2
-8
0
-4
0
0
-1
0
0
0
-9
2
0
1
0
0
-1
0
0
0
0
-8
0
0
-6
0
0
0
0
-3
-5
0
18
-7
9
1
2
0
46
-13
24
12
0
8
-1
0
3
-8
-12
0
1
-6
0
-2
-6
0
5
0
-6
1
0
0
-8
0
-14
-4
9
-25
-5
-4
-10
-14
-15
0
17
-18
-3
-13
-48
-2
0
-20
0
-37
5
21
18
-24
-23
15
11
0
28
0
-5
3
-14
-5
-5
5
2
4
0
0
0
0
0
-3
-1
0
0
0
0
11
-3
0
0
-1
0
17
-8
0
0
0
0
0
0
0
0
0
0
0
0
0
0
0
0
0
0
0
0
0
0
0
-10
0
0
0
0
-11
0
5
-3
-7
2
-2
0
-2
0
3
2
3
2
11
0
0
0
0
2
2
-5
0
0
0
9
0
3
15
0
-22
0
0
-2
13
4
0
33
-15
-3
5
2
3
3
-2
0
-22
21
34
1
-7
13
24
-25
2
1
7
0
-7
3
-16
-17
0
10
33
43
0
9
0
33
9
0
24
0
0
0
0
0
0
1
0
0
0
0
0
-6
0
0
0
-46
9
-10
-33
0
-12
-3
-12
-41
-25
0
6
57
-46
42
-26
-3
23
-2
4
20
10
9
-4
-38
-11
37
6
-21
-4
0
-5
1
0
0
0
-20
3
-2
3
20
0
0
-1
-26
0
0
25
15
-23
-11
-9
4
0
0
-17
0
7
6
-19
-2
26
-5
0
1
0
-2
-12
1
0
9
-1
-3
2
9
0
1
4
8
1
2
7
-31
0
0
20
0
-15
0
-25
2
0
0
17
0
-20
0
0
0
0
0
0
0
0
-1
0
0
1
-1
0
0
0
6
-4
-8
-33
1
5
9
-1
-36
25
41
-44
10
40
5
0
6
3
0
8
0
-15
-4
0
1
15
-18
-18
1
-8
-2
21
3
0
0
-5
0
0
7
0
-4
0
1
-3
-9
0
0
0
20
-1
0
-15
26
0
7
0
-5
18
62
0
-2
40
-2
0
0
0
0
0
0
8
2
0
0
4
0
0
-5
0
0
0
-12
-36
-36
-7
0
-46
-20
1
14
2
-18
-31
0
25
3
-9
17
5
0
33
8
22
-20
-1
-2
-3
0
0
-6
0
-9
0
-4
-1
-5
10
0
4
23
-3
-3
19
13
-1
-29
8
0
0
0
-6
11
-5
14
-2
11
4
-7
0
23
-1
-13
-7
14
16
12
0
0
1
13
0
4
9
-25
7
1
0
-24
-1
0
12
11
2
5
1
0
0
0
19
-19
7
-16
0
0
-36
0
13
24
29
33
3
23
0
0
11
7
4
14
-7
-17
20
-8
0
7
0
0
22
0
-3
0
7
-3
2
-6
0
3
-10
0
19
10
0
0
0
2
2
0
0
11
0
0
0
4
0
-2
0
1
0
-1
-13
0
0
2
0
-13
4
5
-5
-4
0
4
0
29
0
6
7
4
0
-6
-10
23
-2
0
12
1
11
-5
1
0
-1
-23
7
2
-14
-5
0
1
0
-5
-20
-39
26
-6
-3
0
0
0
0
0
-6
11
0
0
0
0
0
2
0
0
0
-15
32
-8
0
36
-64
-22
-8
-19
-32
-15
37
72
-41
28
-30
-64
37
-37
-5
-2
-3
15
-18
-53
1
-31
4
31
-29
29
1
0
-3
-5
0
2
-4
1
-3
0
8
7
0
0
0
0
0
6
7
0
9
2
21
-1
-2
15
0
7
0
0
12
-10
-1
22
8
6
10
6
0
0
7
-16
22
26
0
-8
0
0
10
-3
-9
4
1
-1
0
0
0
15
0
0
1
-1
0
0
0
10
-1
12
-1
0
-1
0
8
2
-4
-3
0
3
0
0
22
8
7
0
30
3
7
-2
-12
-7
-6
-4
5
-12
-15
-5
-7
-5
0
-2
-4
2
-3
0
0
-4
0
0
0
0
-5
1
0
0
-24
-1
-21
0
-8
15
-5
-3
13
9
-1
1
16
2
0
5
2
0
-8
2
0
0
-19
-17
-9
0
15
-9
-5
0
0
7
30
28
0
3
9
0
0
0
0
0
0
0
0
-6
0
-4
-4
-19
0
-13
-23
3
1
-18
4
-5
0
19
-41
22
-10
0
0
0
0
0
0
0
0
0
0
2
0
0
0
0
0
0
-9
28
0
-4
0
-5
5
11
7
1
3
0
-9
-3
22
-11
62
0
0
0
0
35
-27
-3
7
1
0
29
0
-19
0
0
0
0
0
0
0
0
0
0
0
0
0
0
0
0
0
0
0
-10
10
0
8
0
6
3
13
0
-11
-12
0
-4
0
-30
-2
-1
-1
-6
-17
-3
19
-5
0
-7
1
2
-22
3
0
29
5
-38
0
0
20
13
0
0
27
1
-77
-4
9
-8
0
-19
14
-11
-4
15
-33
5
0
-22
-16
0
28
17
-9
40
-4
8
0
0
15
5
0
0
0
-4
0
-7
-3
12
-8
-12
0
-5
0
-15
13
-1
-12
-12
-6
4
0
-12
-7
0
0
5
-19
-5
8
5
14
-4
2
-8
-2
0
0
-1
2
-3
-3
-2
-10
-10
-1
-1
-1
-9
-20
5
0
-2
0
-2
9
0
1
1
-4
0
3
0
-14
-10
35
0
-3
5
-18
8
7
23
18
-8
-1
12
4
0
9
-1
46
4
-48
12
14
6
-9
26
8
-25
0
5
11
50
-3
7
15
4
13
-18
0
35
38
-3
33
-10
20
17
-13
6
16
18
4
0
6
2
10
4
-3
-31
14
-6
0
-6
-1
-25
-14
-17
0
7
19
1
4
3
1
10
-4
-2
15
4
4
0
0
0
0
0
0
0
1
1
0
0
0
0
0
-16
39
0
-29
0
34
12
-9
-25
4
-21
-21
-2
0
-11
0
42
0
3
15
19
3
-6
0
0
0
0
0
0
14
-3
0
0
0
0
-15
-18
0
0
1
37
0
20
0
17
33
-3
21
4
3
0
23
3
17
0
0
-4
12
0
-9
-18
-27
-10
-2
-20
-4
-10
0
20
0
0
-25
4
-36
-4
2
-15
-13
29
-39
23
0
0
0
17
0
0
0
0
9
1
0
-7
0
0
0
69
14
0
18
8
2
6
2
3
3
-12
-1
0
-20
0
3
3
-8
-3
9
1
-6
-13
0
8
0
-13
-15
-5
2
-4
-17
21
-4
-1
0
0
6
0
7
-3
-5
-1
2
-3
0
-8
6
4
0
0
-4
0
3
0
0
0
2
3
0
-1
2
0
0
22
4
10
11
0
0
0
21
-9
15
-1
-10
-6
-21
0
24
0
0
-3
5
0
-9
0
0
2
0
-3
-11
5
0
8
-1
0
0
0
0
0
0
2
0
0
0
0
0
0
0
0
0
8
-9
6
-9
0
-2
16
5
-10
17
0
-8
-17
28
10
2
-1
0
0
1
7
-21
-6
0
-12
0
0
6
11
0
2
-17
-17
0
7
0
0
4
0
-10
0
0
0
0
-7
3
0
-1
-1
0
0
0
-17
0
30
4
20
-5
-1
0
13
6
0
0
0
5
0
6
6
-29
-25
0
44
-1
-28
-16
33
-1
17
-3
0
2
0
0
4
19
-3
-8
-1
-2
1
0
0
-4
0
-15
0
0
0
-4
0
9
-2
-2
2
0
2
0
-1
3
-3
0
13
24
-6
-28
-1
-6
36
-3
-14
53
-22
-55
8
-2
-20
33
0
0
0
0
0
0
0
0
0
0
0
2
-3
4
0
0
3
0
0
0
4
0
0
0
-3
2
0
0
0
0
0
0
-8
0
0
-8
0
-1
-3
3
6
0
0
0
5
-7
-6
0
0
-33
-3
13
-4
0
0
0
33
0
-7
0
0
26
0
-12
-6
-42
-26
-2
-22
-20
4
-16
-6
-8
-21
-33
-30
28
-2
-7
28
-4
38
28
11
-10
-5
39
-10
28
0
5
-16
-4
8
32
-8
0
-1
-9
0
-4
0
1
3
-19
0
13
32
1
6
0
8
0
0
8
9
1
0
0
-10
4
0
-3
0
0
-1
0
2
0
6
18
0
-3
0
10
-13
8
-1
19
-4
0
0
0
-19
-1
-14
0
2
-18
0
-4
-10
2
-9
9
5
-23
31
-28
0
-4
-19
0
-13
3
0
1
0
0
6
0
2
-7
0
-6
0
13
1
-17
14
6
11
0
-16
0
0
2
-5
-3
3
-4
50
-19
1
0
14
-27
33
23
-25
35
-13
-32
-2
-37
29
23
4
0
0
5
-1
-5
-7
0
48
0
-7
0
8
5
0
-3
56
-19
8
31
0
-22
-5
38
-11
38
-10
-18
12
9
6
16
-26
0
0
-28
-8
0
0
-7
-3
2
0
-8
0
-2
-7
0
-1
-2
10
-1
0
0
0
2
1
-7
5
5
0
15
0
0
0
0
0
0
0
-9
-19
-12
0
-34
-1
16
3
2
0
-37
0
-23
0
0
0
0
-2
5
-3
0
1
-26
-28
0
0
-1
5
20
5
20
19
4
-12
-16
4
-13
18
16
0
-2
-3
-2
-4
0
1
-1
0
0
0
0
0
-11
0
0
-10
0
0
1
-3
0
5
4
22
14
-6
-9
-23
4
-6
0
-15
2
-12
-6
0
0
0
0
0
0
1
0
0
-2
0
0
0
0
0
0
55
1
-30
11
43
6
-11
-39
-27
-5
-9
8
-1
0
0
-41
18
-21
0
-2
5
5
9
-5
-3
1
17
0
-13
1
0
0
14
0
-9
-15
0
7
14
-22
0
21
4
-11
0
11
1
14
0
0
0
0
0
0
5
13
0
0
0
0
-9
0
0
4
-25
-5
-13
19
1
-21
-21
7
8
-3
-11
-1
24
-26
23
-23
0
0
0
0
0
0
0
0
0
0
0
0
0
0
0
0
21
24
10
10
40
54
-15
-45
25
-4
23
6
0
27
-24
-28
1
0
18
1
0
17
-1
5
0
9
0
0
0
-3
0
0
0
-14
-43
21
-4
-8
-3
-13
21
7
-43
-28
21
16
0
-22
-9
6
0
-4
0
-4
-1
0
0
-10
0
4
14
-1
8
1
0
-4
-2
-2
7
15
15
0
-7
10
18
-29
0
16
-8
3
29
17
50
35
35
3
-24
1
15
3
0
43
-10
-20
0
0
0
0
0
0
0
0
2
2
0
0
-3
0
0
0
0
0
-2
0
0
3
0
0
0
0
0
0
0
0
0
-6
0
0
0
0
2
-8
1
-22
32
24
-2
8
23
0
-5
2
15
9
0
-8
6
0
1
0
16
0
-20
11
36
-1
-5
28
0
3
-20
4
-14
2
0
27
25
-33
-3
1
-33
-29
0
-18
-4
0
1
-10
-1
18
-5
-18
-17
0
10
4
-10
-13
31
9
3
-15
11
0
27
0
-8
-8
0
24
-15
8
-5
-5
29
-34
0
16
-2
0
8
-17
-1
0
15
19
0
0
16
0
-8
8
0
6
0
32
0
9
0
25
8
-11
3
2
-2
0
2
0
0
0
-19
0
3
-17
0
-8
0
3
2
-21
11
0
-5
1
0
0
23
2
0
10
14
24
-12
-8
26
-1
31
6
-11
11
0
-4
-4
0
2
2
-9
2
-18
0
1
-5
0
-3
-1
1
0
-1
0
-19
0
-8
0
-2
0
0
-7
5
10
11
-1
1
0
0
14
24
9
33
6
27
-28
-26
17
-12
0
32
21
17
-9
-38
-3
-8
-21
15
-19
-14
-8
6
37
0
0
-6
0
0
-6
-15
-47
6
-15
0
-26
-2
-13
0
0
4
-42
-10
-5
-12
-26
0
-2
0
0
0
0
0
0
0
0
0
0
0
0
-3
0
0
18
-17
7
0
9
-4
11
0
-20
0
0
12
0
-9
16
17
27
0
33
0
0
-10
6
18
0
-15
0
23
14
1
4
17
-1
0
0
0
0
0
0
0
0
0
0
2
0
0
0
0
3
-11
31
0
-15
-36
15
51
9
9
14
-1
0
0
5
25
15
0
20
21
0
34
3
0
21
3
0
12
-32
0
-17
0
0
15
4
9
0
-27
20
15
-17
3
-15
0
19
-31
18
4
34
18
-5
0
13
23
-6
-14
-3
0
14
0
5
6
-10
-5
13
2
-3
16
-2
24
-1
-11
6
0
0
-2
-3
0
-9
-3
7
0
0
2
0
-2
0
0
-4
2
0
-7
0
0
0
3
-10
0
29
-20
0
0
28
21
33
0
15
0
16
5
0
26
0
-1
-1
0
0
3
-2
0
3
0
1
0
0
11
0
0
0
0
0
-12
4
0
0
0
0
0
0
0
0
0
0
0
0
-46
-17
-16
-5
-25
15
2
-1
14
2
-14
0
0
6
0
2
-15
-27
12
-21
-32
-36
0
30
4
-29
-22
8
5
5
-18
0
2
0
0
4
0
0
0
-9
-1
0
0
0
0
0
-7
20
0
10
0
0
0
-6
0
11
-4
23
0
0
24
-6
-3
0
-3
0
16
-5
0
2
0
0
2
0
0
0
0
0
9
0
0
11
0
0
0
0
17
0
3
0
0
0
0
0
2
-21
-4
8
-27
-3
-2
-1
0
0
-13
4
4
-2
0
0
-2
0
-5
0
5
3
-19
-1
0
-3
-4
0
-1
4
0
10
-4
0
0
0
0
0
0
4
0
2
0
0
0
0
5
0
0
0
-4
4
0
-2
-8
0
0
0
-2
4
5
-5
0
0
25
0
4
4
14
-1
7
0
0
25
0
0
0
2
0
0
4
-1
1
1
0
0
0
0
5
0
0
0
0
0
-2
0
0
1
0
2
3
2
6
-1
-2
-2
0
6
0
0
-1
-5
-2
31
5
0
24
22
0
-13
3
0
43
1
-39
-27
0
0
13
0
4
8
0
13
2
0
-5
-2
0
4
0
0
13
-2
0
-3
-2
0
0
-4
-3
0
0
5
0
-1
0
-2
8
1
-2
0
0
0
0
0
0
0
0
0
0
0
0
0
0
0
0
12
11
-7
14
1
0
-21
0
1
0
-4
-23
3
8
0
-5
0
0
0
0
9
-1
0
0
-36
-14
0
0
0
-28
0
-9
0
0
-25
23
0
2
-30
-7
32
-1
-10
0
0
44
-3
-66
-26
-5
0
-15
-5
-20
1
9
-1
-2
2
28
8
0
9
1
21
0
-2
13
0
0
-3
8
-5
23
-13
-23
-13
-15
0
0
0
-9
-9
0
-7
-18
-12
0
0
1
-20
-6
0
-5
3
-12
1
18
0
7
22
-9
-12
-16
-2
-19
-3
12
7
15
0
-19
-6
-16
8
-19
-3
4
26
21
19
-9
9
4
0
33
-13
5
0
3
0
-1
0
1
0
0
0
0
0
0
-2
0
0
0
-17
10
0
-11
-12
0
3
1
1
-2
6
0
17
7
1
12
-28
-2
-13
-21
-40
16
12
5
12
-8
-12
-10
-9
-7
11
0
-39
18
-4
0
12
-35
0
0
-28
-29
-10
17
30
-44
39
-25
0
1
1
-3
0
0
13
-1
2
0
21
2
0
2
13
10
-40
10
-5
-29
0
-62
-3
6
-9
-26
1
14
71
-17
62
-18
-5
14
0
1
0
6
5
-16
0
3
-12
4
-1
-12
2
0
5
-29
38
3
11
-19
-17
21
-47
26
-6
-5
-11
-48
0
21
-6
0
-23
28
-14
-14
21
18
0
23
-6
-4
11
-22
3
16
0
0
0
-10
8
0
6
-1
-6
3
7
0
-12
1
0
0
0
0
6
0
0
0
7
0
0
0
0
0
0
2
0
0
-5
0
-41
-6
9
-14
-8
-2
-31
0
0
-7
-1
4
4
-18
-6
-1
0
-6
0
0
1
3
0
-2
0
1
0
0
0
0
-20
6
0
3
6
-44
0
0
-53
-6
-14
5
44
-41
35
0
-8
-10
0
-29
-2
2
4
0
0
0
8
0
-20
13
-5
0
-2
-4
4
-6
7
-5
2
11
-2
-3
21
29
4
0
8
3
0
0
-22
44
0
26
-5
-2
15
0
0
-12
0
15
-4
0
-1
-19
17
-2
-11
21
48
39
35
2
0
0
-5
12
-23
58
16
6
0
0
0
18
20
0
0
0
0
23
-23
-25
0
7
-15
7
0
-6
17
-32
-3
-20
-21
-31
0
29
-5
-10
18
-47
0
0
0
0
0
0
0
0
1
0
0
0
0
0
0
0
-8
0
2
-1
4
-42
-6
27
-24
0
9
25
0
0
10
0
-16
0
-15
-6
0
0
0
-9
1
0
0
-30
3
0
0
8
0
0
0
0
0
0
0
0
0
0
0
0
0
0
0
0
0
0
-12
-3
0
0
20
7
9
0
0
0
11
0
0
13
3
0
0
0
1
-3
0
0
0
4
0
0
1
-1
0
0
3
-19
45
-13
0
2
7
23
14
2
16
8
46
13
0
32
0
0
0
0
0
0
-8
0
-9
-9
0
0
0
-8
4
-16
-12
9
-16
0
8
-41
0
0
-18
-14
-2
0
13
-21
23
-15
0
-6
-9
1
1
-1
-51
0
-10
1
-6
-11
-19
3
2
-4
22
-32
9
0
-11
0
-10
0
62
-3
0
0
39
20
0
0
4
3
-1
0
0
2
0
15
0
0
0
-3
0
-8
0
8
27
2
26
31
0
2
5
19
-24
33
-37
-18
0
-42
-2
44
-7
26
57
-32
8
14
0
20
-23
-14
73
51
-8
23
-1
43
0
-18
12
0
-3
27
11
-2
-2
17
-17
3
-45
-33
-30
6
6
28
0
0
0
1
-5
-43
6
-3
28
8
0
11
0
-22
-6
-40
24
-34
-14
4
13
9
23
0
27
1
24
19
-13
15
-2
0
1
-13
-14
0
2
22
2
0
0
0
1
0
0
0
-16
1
12
-34
-33
-23
23
33
46
-23
68
46
34
12
0
50
15
31
0
8
10
12
-10
-25
29
-26
11
9
-1
24
-28
-26
-7
8
0
-16
0
2
1
-2
0
0
28
-3
9
0
-27
20
-17
-6
-7
6
0
-27
-13
0
-2
-7
-39
-22
38
-5
16
-25
35
-60
-33
-36
34
-63
4
-35
-45
40
20
-52
-20
127
22
-37
0
-1
-20
0
0
0
0
0
-2
0
-9
-1
0
-1
0
-9
17
17
4
29
10
4
-13
0
-17
0
0
25
-8
-6
-6
0
-1
4
-16
0
0
-4
0
-18
-20
0
-8
-10
-12
-14
0
-3
18
0
10
5
0
4
-4
4
0
0
-2
6
-29
-1
0
-9
0
-5
-2
10
-2
-7
-21
3
12
0
-18
-9
1
1
0
-12
1
0
0
0
1
0
3
0
0
0
3
0
3
0
0
0
0
0
0
3
0
-13
-3
0
0
8
0
0
0
-12
7
0
9
12
17
0
-4
13
0
7
36
-5
10
3
11
35
-13
4
2
0
6
5
0
0
-5
-3
2
-3
2
2
4
0
-1
-9
-22
9
-48
-4
-42
10
16
-1
4
0
0
-7
23
0
0
0
0
0
0
13
0
2
0
1
1
0
0
0
0
1
-3
-1
-9
-42
-5
-28
0
-1
10
0
-7
1
12
-4
-5
12
0
0
22
-8
-14
-16
-7
-39
-21
23
-33
-14
-3
22
78
-39
37
-13
16
-37
8
-1
-17
-14
2
15
35
5
-8
2
-2
-2
0
0
-14
-50
-20
54
-38
-61
-52
12
5
-26
-22
-23
26
22
5
-13
0
0
2
-2
0
0
0
0
0
0
0
0
0
0
0
1
0
2
-2
5
-3
0
0
5
0
2
0
-11
0
-5
0
2
0
48
0
9
0
-1
-6
-16
-9
-16
-1
25
14
6
0
-9
-3
20
0
-9
56
15
-4
-19
0
-1
4
7
6
6
0
-8
-5
7
0
0
1
-10
0
5
-7
-6
-2
6
0
-13
6
0
12
-2
-3
4
-2
-6
-15
1
9
0
-6
-9
7
6
2
0
1
0
-8
0
0
-1
0
0
-21
0
0
0
-17
-6
0
-23
9
3
5
10
0
9
4
7
0
9
6
0
-32
0
-5
3
0
-1
0
-22
0
0
16
0
0
13
2
0
-3
17
0
1
-21
0
-4
0
0
-14
0
0
-4
-7
0
1
0
-13
20
-10
-21
-32
-12
-21
-25
2
-3
2
0
-35
-10
0
0
14
0
0
0
0
-2
-1
0
13
1
-2
0
0
0
-5
0
4
0
9
-16
0
-11
-31
4
-13
2
7
0
0
8
0
0
46
6
8
-10
5
-4
-9
6
-5
0
-1
-1
-8
2
8
0
0
1
0
2
0
0
0
0
0
0
-7
0
0
0
0
0
0
0
-2
-2
1
0
-8
2
-17
-11
19
-17
-19
-6
16
0
-5
29
-17
0
0
0
0
0
0
0
0
0
0
-2
-1
0
0
0
0
0
0
-5
0
0
-10
11
-2
0
0
0
0
7
0
0
0
3
-4
0
-10
2
0
1
0
0
0
2
-12
1
1
1
0
0
-3
0
-26
0
0
12
0
2
0
0
0
6
10
1
-1
0
0
0
0
0
5
1
0
0
5
0
0
0
0
0
0
0
0
8
0
3
0
2
0
-6
-1
3
1
0
-4
5
-1
0
0
-18
0
-6
4
0
-3
0
0
0
0
13
-3
0
0
1
-15
0
-6
4
-9
2
-10
-13
1
8
0
2
-10
19
0
-11
-7
-11
0
-9
-3
3
6
0
0
4
4
2
11
0
8
0
2
-5
0
3
4
0
-12
2
-3
8
13
-33
3
-2
-4
-31
40
-30
-1
-33
35
30
-22
6
-2
0
-17
38
-10
-9
25
0
0
0
11
0
-3
-5
0
-3
1
0
0
-2
-8
0
0
-21
-15
-10
-24
0
-22
0
23
-3
-17
-17
4
0
1
7
-11
7
0
27
10
-7
0
1
8
5
-22
0
13
22
-4
0
0
10
-16
46
-13
-5
-22
44
69
-7
12
13
3
8
-41
31
19
0
7
8
2
-18
24
-7
22
0
0
0
-5
-18
0
-23
26
0
5
-5
3
0
1
-12
0
0
0
0
-8
-15
12
-8
0
12
-3
14
0
0
-5
0
0
0
1
-13
0
1
-30
1
0
-6
12
0
-38
0
10
0
-8
13
0
4
0
0
-17
-10
5
5
13
0
7
0
12
-27
-23
3
-14
0
10
1
-2
-13
-13
-3
-17
0
3
-19
-9
-31
1
20
-2
-5
6
26
20
-1
-11
46
2
-2
37
0
22
2
29
-7
38
11
-5
-37
-4
1
-5
-3
0
3
-1
-2
0
0
0
17
0
4
1
1
13
0
6
3
0
4
6
0
1
0
0
0
0
0
0
0
0
0
0
-22
0
-2
-4
0
-15
0
0
-12
-14
-8
10
0
-8
19
-4
30
-1
3
16
0
12
-2
5
0
10
0
17
-27
-24
1
31
0
2
0
2
0
0
0
8
-4
3
-2
0
0
-11
0
2
0
0
0
0
0
0
0
0
2
0
0
0
0
0
0
0
0
0
0
0
1
1
0
0
0
0
0
0
-6
0
1
0
0
3
-10
0
-3
-1
-3
0
4
0
4
0
-5
0
-2
2
-2
19
0
-22
3
2
9
17
0
-6
40
18
-14
27
0
-7
-4
25
-3
18
30
-3
-23
-2
0
-17
1
17
-23
18
0
-23
0
0
0
15
0
0
0
3
7
-6
0
0
-1
16
0
0
-2
-11
0
12
0
-4
-8
-10
-2
-1
-29
-13
-4
5
1
-8
-14
49
-14
-7
0
-4
3
-32
16
0
-12
0
49
-2
4
-4
0
0
8
0
-5
0
26
14
0
0
0
0
5
0
0
25
0
0
0
1
0
1
0
0
0
0
0
0
0
0
0
0
16
21
-4
24
0
5
2
10
6
1
-4
-7
0
-19
9
0
0
2
5
0
-1
35
-12
-6
24
0
12
5
-7
3
-6
-9
-6
2
11
2
0
0
0
-2
12
0
0
0
-10
4
0
0
-11
21
0
0
0
-24
-9
3
0
0
-11
16
9
-11
17
-6
0
0
0
8
0
0
-1
0
10
0
0
0
0
5
0
0
0
0
0
0
0
0
0
0
0
0
0
0
0
0
0
0
0
-4
11
58
-13
22
4
50
-13
18
-11
0
-33
-49
-3
11
0
0
0
-9
10
-19
0
6
-15
0
0
0
8
-18
7
-1
5
0
2
1
0
0
0
4
-1
0
-10
0
-5
0
-4
0
51
-2
3
61
-1
-33
0
24
0
39
-12
-3
24
-11
7
15
-6
-35
43
8
-17
-45
-24
33
-20
13
-37
-4
13
-43
8
42
0
0
7
-1
3
17
-8
0
16
-2
27
16
0
24
-14
0
2
0
-14
0
0
-2
-9
0
0
0
0
0
2
0
0
0
1
-1
-4
-7
11
-1
0
-9
-3
0
4
-4
-8
15
0
0
17
-11
9
8
0
-6
0
11
0
3
-6
-2
11
-8
4
10
0
0
0
0
2
0
0
-6
0
0
1
0
0
0
0
0
-6
-13
7
-19
-6
-74
9
1
15
-8
5
23
-13
15
-4
6
-8
-44
-9
9
-71
-70
-50
29
84
0
-6
-34
53
40
37
-4
1
0
0
-11
6
-1
0
0
0
0
-2
-8
8
0
5
1
0
0
0
0
-5
0
0
0
2
-2
7
0
0
4
0
18
17
0
0
10
2
-21
-14
14
0
22
-8
-1
-10
-16
2
0
0
0
-1
0
0
0
0
0
0
0
0
0
0
0
0
0
0
4
0
37
0
0
-2
-23
0
-2
-11
0
21
1
-1
0
0
-3
-5
-5
0
-7
5
0
0
0
1
0
0
0
2
0
2
0
2
10
0
20
-38
0
-2
0
7
-2
-39
-2
-14
0
4
0
0
0
3
0
0
0
0
0
0
0
4
-3
1
-10
0
0
0
0
0
0
0
0
0
0
0
0
0
0
0
0
7
0
-7
4
-3
11
1
-33
0
17
-17
-46
3
-16
0
24
1
-5
-1
31
0
-14
-52
-1
17
1
-30
-11
29
6
1
-26
-4
0
-33
-3
0
4
34
0
-9
31
-14
-7
0
-7
-2
5
0
-14
-15
5
-16
-16
-28
3
16
0
-26
-26
2
-9
8
-18
1
0
2
1
0
8
-1
-1
2
0
0
0
-9
3
-3
0
-1
-9
8
0
0
-26
-20
4
56
-33
5
44
7
15
0
-7
3
0
1
-1
0
0
9
-9
0
4
23
0
-5
0
-2
0
0
0
-2
0
0
-8
12
0
-7
0
7
0
0
-2
7
0
0
0
0
13
0
14
-3
0
16
6
0
0
0
1
0
-1
0
0
3
-9
1
0
-4
-6
-9
0
11
-1
-6
0
-1
3
0
-5
-14
0
0
0
0
0
0
-9
0
-4
0
26
0
-1
4
-5
-6
-8
12
-1
4
-1
-2
13
2
-8
-15
3
0
0
-4
15
-3
0
0
0
0
-8
0
4
-7
0
4
-2
-3
0
0
-17
8
17
-6
-23
-31
12
40
0
0
-14
13
18
0
0
-39
5
-4
0
-28
-1
3
-5
0
-9
-2
-15
5
2
-4
26
0
0
-1
0
0
0
0
0
0
0
-4
-3
0
0
0
0
15
0
2
-4
0
0
8
0
1
4
1
0
3
0
0
4
22
8
-2
0
34
18
11
-5
-4
26
18
-23
-29
20
-15
3
0
0
0
0
0
0
-3
0
0
0
0
0
0
0
-2
0
37
9
0
9
20
-22
0
0
0
8
-1
1
2
-6
-1
0
6
-1
-1
-2
1
3
-1
0
-1
6
6
0
-6
6
-5
-2
2
0
0
5
2
-21
-3
0
-26
9
-1
0
-12
-33
0
1
1
0
0
-20
8
11
9
4
-18
21
29
-18
-17
17
-5
0
0
0
0
0
1
-1
-4
-10
-3
0
0
0
-5
0
-3
0
0
12
17
0
0
1
0
-7
18
-16
15
3
0
7
0
-5
0
0
0
0
0
-1
0
0
0
0
0
0
9
1
0
0
-14
21
-13
-17
-7
30
20
-12
14
7
0
-12
5
-9
0
0
-1
-3
-13
8
0
-15
-27
-7
5
0
-4
1
-6
-2
-10
-10
0
-12
-16
1
8
-3
0
0
16
0
-17
-3
0
0
0
-21
-10
4
-14
-9
0
-11
8
14
-22
-8
-8
8
-4
-15
0
0
0
16
0
6
6
3
0
0
0
-4
0
2
-20
0
0
0
2
9
0
19
-11
0
-2
0
-28
1
-9
0
-5
-15
0
0
-12
-8
-2
-2
0
-9
2
10
3
-12
-16
12
-4
7
0
0
-23
2
-46
-12
-39
0
32
1
-5
0
0
-18
25
28
0
0
0
-4
-4
-12
0
5
0
0
16
0
14
6
-19
0
0
0
0
0
0
0
0
0
0
0
0
0
0
0
0
0
0
0
13
6
12
7
25
17
-1
-13
12
0
6
0
0
5
-7
-19
4
-2
0
0
0
0
0
0
-6
2
0
-4
-5
0
0
-4
-14
-6
0
-8
4
-30
0
0
0
-2
8
5
0
0
0
0
0
-4
3
-25
4
-3
3
0
0
1
21
-6
0
7
4
-5
-23
25
0
0
0
14
21
-20
-7
6
0
0
1
-1
0
0
-1
-3
-35
0
7
-23
-12
-21
-21
-6
-3
6
28
-19
28
-23
8
0
9
18
0
-9
0
16
-4
20
-14
0
6
-13
0
0
-26
-25
-24
60
-73
0
-43
3
35
-36
-98
-21
8
3
-16
-30
7
-18
-15
36
-11
-15
-18
11
3
0
-12
-12
3
0
0
-14
-13
-6
3
-7
-24
-21
19
28
27
1
0
10
-19
8
-5
0
3
9
-22
-1
-3
36
66
-26
-32
9
5
-21
35
0
-3
22
-4
0
0
6
0
-29
-12
0
-6
0
-9
0
-13
0
-10
-9
0
-1
-4
0
-6
0
15
2
0
20
5
-22
6
-17
0
7
-31
20
-14
-4
0
8
24
-1
-29
21
0
-17
-7
0
0
14
0
0
0
0
0
4
0
1
2
0
0
3
0
0
0
1
1
0
10
14
3
0
0
15
-8
0
3
0
12
-12
20
6
-26
-25
0
3
-17
-44
-7
8
33
-2
-26
-5
35
27
22
-8
12
34
-40
-1
20
31
0
-46
0
0
10
-20
58
18
-12
2
21
-3
0
18
-2
-42
-34
20
-31
17
-14
-15
-1
-40
37
1
22
14
0
23
10
18
-31
0
13
-1
10
0
-11
14
-13
-13
-4
0
0
-3
0
-5
20
0
25
-5
53
0
0
0
0
3
-1
-15
-32
0
0
-75
-25
0
-3
0
-34
-4
23
-7
26
-46
-19
9
-3
0
0
-34
-2
-6
-12
-8
-1
6
4
-3
16
-12
0
0
-1
0
0
-2
0
0
0
0
0
0
0
0
-1
0
0
4
10
-6
-4
-8
4
7
5
0
11
0
31
3
9
13
0
0
0
0
0
0
0
0
0
0
0
0
0
0
0
0
0
-1
0
0
-11
-21
0
6
3
0
1
1
4
2
0
-14
3
9
-23
2
18
-29
-7
-9
-26
-15
3
0
40
-9
4
-14
11
0
0
0
2
-6
0
-5
6
0
0
0
0
2
-6
-1
0
0
0
0
0
1
0
0
-5
0
0
0
-2
-4
0
0
10
-16
0
5
-13
-8
0
2
0
1
-13
-17
11
12
0
-1
5
0
0
0
11
0
0
0
0
1
8
0
-2
9
0
-1
0
4
-3
0
0
-1
0
0
-8
5
0
0
10
-6
0
0
-14
0
12
3
0
5
-16
4
-2
10
-7
2
-20
0
-17
-9
-38
18
-28
-23
20
-53
-3
19
-37
-39
-36
39
54
-64
48
-20
0
0
0
0
0
0
0
0
0
1
0
0
0
0
0
0
2
0
0
-12
5
0
8
0
-13
24
0
0
-4
9
0
0
6
0
2
30
3
2
0
2
0
10
0
-1
-10
-10
0
4
0
0
-4
0
1
-25
0
-4
-28
0
0
-3
13
-17
4
-18
-4
4
-43
0
0
-20
0
0
-15
-1
1
0
4
-21
0
-2
1
10
2
11
18
21
-11
-5
3
-5
9
17
-15
0
0
4
23
18
-20
5
4
-1
1
-9
-33
9
-6
-28
21
-20
5
2
-6
24
-13
0
-2
0
11
0
0
2
-6
0
14
0
2
0
0
3
0
0
-3
18
0
-1
0
0
-3
0
-10
-6
-9
0
-6
7
-2
6
11
-7
-11
-8
-5
-2
9
3
6
-5
5
0
0
-1
19
4
0
0
-1
0
9
0
0
0
0
0
-1
12
51
26
6
13
31
0
-27
0
0
5
0
29
0
0
-19
-17
-6
0
0
4
20
-27
-22
0
-10
-6
-9
12
4
-18
12
-20
33
14
-5
-3
0
-1
30
1
-23
3
23
-7
-4
2
1
33
0
-4
-9
-17
0
0
4
-10
1
0
-14
-5
0
2
-7
4
30
-7
28
34
17
5
-49
-2
41
-25
11
22
-17
39
-23
-44
5
-1
0
13
-1
4
-1
0
5
-1
0
0
0
0
-1
-1
-7
-5
1
-1
11
-4
-3
0
-8
-5
0
0
-3
0
5
-4
0
0
3
0
12
0
0
0
0
0
3
5
-5
0
-5
-5
4
17
0
7
0
0
15
-25
-8
22
-13
-31
37
-14
0
12
-12
-4
-11
0
0
-4
-8
3
-9
-3
-2
4
15
-15
8
-24
0
0
0
0
2
0
0
0
1
0
0
0
1
0
4
0
-2
0
-4
-1
0
-1
0
4
0
-1
-12
0
23
4
-6
3
0
0
1
0
0
0
0
0
1
0
0
0
0
-1
0
0
0
0
0
0
0
5
0
0
0
1
0
0
0
0
0
3
-14
10
-8
-5
0
-24
0
0
-9
-5
0
15
4
-12
31
-11
-3
1
-2
0
-3
7
0
0
14
1
-8
-9
0
0
0
12
17
-5
-1
44
0
-35
-26
-20
0
0
-2
-45
-20
0
4
0
2
0
0
0
0
-17
0
8
-5
15
-1
-1
8
-3
3
0
12
5
5
8
4
5
-11
-1
8
-6
4
4
4
2
-1
-9
0
0
0
-1
0
-3
0
12
-5
1
0
0
0
2
11
0
-5
-6
0
-3
-3
0
-7
-5
5
0
-29
0
0
-5
0
0
0
4
0
0
0
-3
0
0
9
-30
0
30
0
-11
0
-28
39
32
19
39
0
2
-4
-1
7
-7
-8
-3
38
-11
0
33
5
0
21
12
5
0
12
29
-9
43
-12
0
0
3
-3
1
-28
0
-12
-16
-23
-2
-12
-4
17
5
-32
-10
13
-5
4
0
6
24
34
5
10
10
-45
0
2
-47
7
64
-3
-1
0
-19
4
0
-7
-4
7
0
6
-18
-5
5
30
0
-2
15
0
5
11
8
18
25
0
12
-13
0
0
0
0
24
-12
-14
-13
0
3
-9
13
-6
-5
7
-4
16
2
-18
-17
15
6
1
5
1
8
26
-13
18
35
-1
0
-11
-8
14
-18
-3
1
-12
0
0
-11
-12
-8
7
0
-21
-12
-6
4
0
-46
-21
32
5
8
-16
-3
-1
-8
0
-2
-1
0
2
1
0
-2
-7
-3
6
0
0
0
-1
0
0
0
-3
-4
0
-2
0
0
4
0
-2
4
0
0
0
16
0
2
-12
-22
0
28
0
0
0
6
0
0
-4
1
-1
-2
0
0
-1
0
0
-3
0
0
0
-3
0
0
0
43
0
0
26
17
0
-20
-25
0
0
0
0
23
-2
-3
-21
0
0
0
0
0
0
0
0
0
0
0
0
-2
1
0
1
-26
8
24
20
-15
0
-1
0
7
-17
3
0
-6
9
-4
0
16
3
9
26
8
12
-2
0
16
15
0
7
-38
0
-17
4
-5
0
0
0
0
0
0
0
0
0
-1
-1
0
0
0
-2
2
0
3
0
0
0
0
0
1
0
2
0
0
-19
0
0
7
8
1
4
0
9
-4
0
1
0
6
0
6
0
0
3
0
0
7
1
0
0
33
7
-4
0
9
0
0
-6
0
54
5
0
0
0
1
2
-6
-10
0
0
0
0
-2
7
-2
0
5
-2
-13
2
0
-3
7
-10
5
4
1
-5
4
0
0
-1
-10
-4
0
-50
-28
-5
41
-4
46
14
6
-16
28
68
-23
16
0
-19
0
-22
-13
-24
-8
5
28
-26
20
38
8
7
0
0
-4
-2
10
4
-9
-1
-26
0
24
5
-21
-30
0
-4
0
0
-2
-1
0
-7
-4
26
13
0
0
21
23
-16
0
9
-3
15
-24
-5
5
0
-5
-6
-23
1
35
-12
-11
24
6
26
0
-26
0
0
0
8
0
1
-10
5
4
28
0
-4
-14
-3
5
-1
0
12
14
1
2
7
0
-8
2
-21
12
0
0
0
0
0
5
16
53
1
0
-9
17
17
5
-2
-8
32
2
-4
0
48
40
22
25
10
48
7
-3
-24
5
0
3
23
5
-3
-29
-20
16
1
7
1
10
11
-8
12
-15
0
-9
-6
-14
-7
0
10
0
57
-53
-20
-4
16
45
-40
-10
21
-2
-38
60
-3
-8
27
-1
0
-2
-2
0
-2
25
-6
-7
-4
-5
-1
0
11
0
0
2
9
0
0
0
0
0
-18
0
-6
-3
8
0
-17
-14
-12
0
0
0
0
0
0
-7
-2
0
0
0
0
0
0
0
0
1
-3
0
0
-12
1
1
-10
6
0
0
-2
2
0
-15
-6
0
0
0
0
0
0
3
0
0
0
2
0
-5
0
0
0
13
0
0
14
0
0
-5
0
0
48
-7
0
-12
0
0
5
0
0
-12
-3
0
-1
-5
1
13
0
0
19
-18
8
0
1
0
0
0
0
0
0
0
0
0
0
0
0
0
0
0
0
1
1
0
0
3
0
0
-5
0
0
0
1
0
0
0
0
-8
-1
2
-10
-2
-3
5
7
3
-3
5
3
0
15
0
7
36
15
0
0
0
0
0
-20
0
0
23
0
0
38
0
-19
4
-2
0
-1
0
0
0
-1
-5
0
10
-3
-8
0
0
0
17
-2
-3
-4
3
-21
12
-7
-19
11
24
-1
4
2
6
3
0
0
-4
8
1
0
0
0
0
1
0
0
5
0
0
2
21
-9
-10
-12
30
-11
1
-11
-18
46
13
-48
-17
27
0
0
0
-14
-24
0
-5
-1
-10
0
1
0
-10
-6
0
0
2
-17
3
0
0
17
0
0
0
13
0
3
0
0
0
0
0
1
6
0
0
-3
4
0
2
-2
-13
2
3
0
-1
0
0
1
25
0
0
-1
21
0
0
0
-3
6
6
-8
0
2
-2
0
-5
-3
8
9
14
20
-18
-1
-14
14
29
0
-21
31
-14
-8
1
0
-1
-4
0
-3
14
23
0
15
35
-9
0
8
-1
7
-34
73
-61
-23
-40
45
55
-40
-5
7
-18
-69
112
-25
0
37
3
0
3
6
6
22
-6
-4
3
-4
0
16
-20
0
-3
-16
17
-6
-7
12
12
17
-17
-14
-2
17
3
-5
-11
10
-6
-3
1
-2
-2
0
0
-1
-5
0
3
0
0
0
3
0
0
0
-6
0
0
2
0
-5
-9
9
11
-43
-17
0
24
1
12
-17
0
7
16
-14
0
12
7
-4
4
0
17
0
-23
10
-10
0
-6
-13
0
-1
-19
-16
-7
2
11
4
10
-3
9
-1
2
7
22
-1
-9
0
3
0
2
0
-25
55
0
-15
-13
0
5
23
-61
22
6
-77
-1
38
54
-19
-5
0
34
6
27
-1
-10
17
0
-2
0
0
2
6
2
-4
0
0
0
0
-21
0
-8
3
0
0
37
0
0
0
-8
15
28
-36
2
17
-22
19
-17
-7
-39
-7
0
0
-26
-27
3
1
16
0
-4
6
8
32
9
0
25
10
0
12
25
10
0
-18
-7
0
0
-7
0
2
-32
0
0
1
0
11
-8
0
0
15
2
0
0
-8
1
-12
-3
36
-27
0
32
-48
-5
6
20
36
8
10
28
6
17
30
-1
46
0
-3
0
5
0
-4
-6
1
3
0
-12
-3
1
-1
7
-14
0
0
0
0
0
0
0
0
0
0
-6
0
0
0
0
0
6
0
-3
8
10
-6
-4
0
-28
15
-11
-13
10
-1
1
7
24
9
6
25
16
9
-10
-13
2
-7
0
3
18
0
-2
-9
0
-2
-1
2
3
-7
0
0
0
0
-2
2
-7
-1
0
2
4
0
0
0
4
-1
4
-3
-3
0
0
-3
-1
3
0
-1
0
0
0
0
1
1
0
0
0
0
10
0
0
0
0
0
0
1
0
-2
6
-3
-8
4
6
-4
0
0
11
10
0
-1
0
-10
-9
6
-7
-1
-13
0
2
1
-8
-15
4
6
0
-1
28
-2
7
-1
6
-4
-21
-65
1
0
16
13
-6
69
-36
-53
0
5
0
0
8
-14
-2
0
-12
-5
-2
12
0
-3
0
-8
0
0
0
6
-16
-19
-5
28
0
3
-8
0
8
-1
5
0
0
3
-35
8
-14
12
4
-15
-1
40
-28
-23
2
-14
-5
9
10
3
-2
6
0
9
15
-13
-20
3
-10
-5
0
0
0
-5
-5
8
24
0
-6
2
24
46
10
-4
1
41
-30
0
-1
16
-3
0
9
30
-6
20
-1
21
12
12
-11
0
-32
15
-12
4
21
0
0
13
9
4
-2
-10
6
-7
3
1
-3
9
0
-19
0
-2
-1
-3
0
0
0
0
-2
0
0
0
-3
0
0
0
-3
-1
0
7
3
-19
-8
-8
0
-1
-9
0
-3
-25
0
0
4
-26
3
-15
-2
-14
-4
0
-1
9
0
3
6
1
3
8
21
22
16
26
14
7
-22
-31
28
-7
3
14
20
10
-11
-23
0
1
-10
-23
0
0
40
-2
-1
0
0
-9
0
-7
-1
9
15
0
43
0
0
28
0
0
27
-3
1
-2
2
5
-4
0
-28
-4
0
-18
26
-27
-16
-8
-16
-19
0
21
-19
-21
7
-16
1
0
0
-5
0
0
1
0
2
0
0
0
-6
0
0
0
0
-6
0
2
-1
0
0
5
5
6
0
-3
-5
13
-3
0
0
0
3
0
0
0
0
0
-2
0
-6
0
-2
-5
0
0
0
0
1
0
0
0
0
0
-20
0
-11
-1
0
-19
0
0
-4
-14
-14
1
-10
-30
-12
19
21
0
-21
-9
13
5
5
0
13
0
10
19
9
0
-2
0
0
2
0
0
-16
0
0
0
-13
0
0
0
-3
0
0
0
0
0
0
0
-3
0
-1
2
-12
0
0
0
1
-5
-5
0
0
-4
0
4
-15
-5
0
0
0
0
3
-2
0
2
0
0
2
0
0
0
-2
0
0
0
0
0
0
0
0
0
0
0
0
0
0
0
0
0
0
0
0
-1
0
-2
0
0
0
0
5
0
0
0
0
0
0
0
3
0
12
0
0
-10
0
0
0
10
0
0
10
0
1
10
-4
-6
-1
0
11
-4
-1
0
-30
0
0
0
-22
-22
17
-5
0
0
0
0
0
0
0
0
0
0
0
0
2
0
0
0
-5
5
0
0
0
6
4
-14
-5
-8
-14
0
21
-15
0
0
-4
8
-8
-9
0
21
3
-15
-2
0
0
0
28
0
0
10
-32
0
-1
-29
14
-17
0
-2
-22
-6
12
19
23
-23
23
0
0
0
-14
0
15
-1
-3
-14
-11
0
0
0
-5
0
2
-1
82
33
0
52
26
4
-7
-4
19
-17
33
24
-13
22
-32
-6
0
3
-8
0
14
-12
-20
-18
-28
-8
1
0
0
-9
0
-9
14
-3
5
-7
-1
10
0
-2
0
10
0
0
-27
0
0
0
-4
5
0
0
0
3
-10
0
29
-30
0
5
0
27
-3
0
3
0
0
0
0
-2
0
0
0
0
2
0
0
3
1
0
0
14
-20
0
13
8
0
-2
-16
0
0
0
-2
-35
0
-6
-1
31
-2
-1
9
0
0
-2
-19
-45
14
48
-21
-12
0
-28
-5
0
18
5
-26
-2
37
38
2
13
2
0
1
-15
0
25
16
1
0
0
20
17
0
0
1
0
-1
0
0
0
-7
-26
-42
33
-20
-20
-54
38
24
-31
9
-8
-33
-33
56
-34
-14
17
-4
-11
15
0
-5
35
-3
-3
8
-1
9
4
-33
0
-26
0
0
-1
0
1
5
-3
0
0
1
-16
1
10
13
-21
4
-5
3
0
-37
16
-1
30
-3
-10
0
5
0
-38
0
36
-22
0
0
-2
2
-6
0
0
2
5
1
0
0
0
0
5
2
0
-5
0
-8
-2
0
0
0
0
-21
-2
-5
1
0
-27
7
-9
-5
2
0
0
1
3
0
0
-2
0
-8
1
0
-17
0
0
-6
0
0
0
-1
0
-26
0
0
-3
-5
-2
3
13
0
-6
27
0
-28
0
7
-9
4
-10
-30
5
3
-9
25
0
11
-2
0
0
0
0
0
0
0
0
0
0
0
0
0
0
0
0
-20
4
-2
-10
-8
-3
0
-1
2
-12
-2
1
2
-8
4
0
0
0
30
-11
0
0
4
9
11
-15
32
0
10
46
0
9
-5
15
-4
-9
0
2
-22
-10
-8
-20
0
35
0
-7
-12
-9
4
-31
-18
53
-38
-58
-40
8
39
3
-39
-30
20
26
0
-38
0
0
5
2
0
9
-1
0
10
0
0
0
2
6
-2
-5
3
1
0
18
17
3
-47
-17
17
0
0
-33
1
21
-3
-28
1
0
0
0
0
-2
0
26
0
0
-4
-2
7
-14
0
0
-3
-6
0
-16
-20
-55
0
11
30
-18
55
23
10
14
5
11
-12
-18
0
13
-8
-8
-7
7
29
0
-12
0
-7
0
0
5
0
0
0
0
0
0
0
0
0
0
0
0
0
0
0
0
17
-1
1
28
1
-1
-8
14
-4
16
-6
-13
0
0
-2
0
-29
6
-18
0
-1
0
1
0
-17
1
0
-9
5
0
0
22
1
-13
-21
0
-12
-40
-26
8
37
16
-11
-38
30
0
15
0
0
1
0
0
0
0
0
0
0
0
0
0
-6
-1
0
0
0
-16
-10
0
0
-26
3
4
1
0
0
0
17
-6
16
0
-9
21
28
0
-10
-3
2
2
-8
-20
0
17
3
-2
0
0
-7
15
0
2
10
-13
-9
-7
-8
-13
-3
12
41
-4
3
-10
20
0
12
20
0
0
0
16
0
17
-1
-5
0
-4
0
23
0
6
-2
0
1
0
-3
0
-14
2
-15
-8
0
-5
-1
3
-14
4
3
-4
5
2
2
0
-15
-3
-5
8
9
-25
3
-2
0
0
7
0
0
0
0
0
0
0
-5
0
-4
-5
0
0
0
0
-2
-2
1
1
-5
1
-5
0
-13
-3
-3
-12
0
0
32
9
8
36
11
0
0
5
-19
22
-18
0
21
-25
0
4
0
1
0
0
-4
2
4
0
2
0
0
0
7
0
0
0
6
-5
-3
-4
1
6
-1
-23
-5
-9
5
1
-6
7
5
-15
0
0
32
-28
9
-27
-14
4
37
-33
75
44
71
53
10
0
-2
-23
-2
-9
-4
5
0
0
0
-11
5
0
2
-4
7
-9
-6
0
-15
0
14
-24
-7
-16
-30
-21
0
6
31
-31
37
-21
10
0
0
0
2
19
-2
-7
22
0
7
7
-13
34
0
0
-30
-2
16
-24
-9
1
13
23
12
-1
0
16
5
9
2
3
0
0
2
-4
0
0
0
5
10
0
36
0
9
18
-11
7
-38
11
-8
0
-7
6
0
-2
-10
0
-24
0
0
-27
0
0
21
0
1
0
1
3
0
-5
0
-1
6
11
0
5
-2
-5
-8
5
0
0
-30
-2
11
26
0
-4
7
7
-2
8
0
26
0
-27
0
-6
-9
-5
0
9
6
18
-9
-39
0
6
1
-3
-5
0
0
0
0
0
0
0
-4
0
0
2
0
-3
0
-1
0
-1
-10
-43
0
-14
15
0
-16
24
5
-21
0
8
0
3
4
0
0
1
-9
-5
-1
14
0
-4
0
0
0
4
0
8
-8
0
0
-7
2
-2
0
1
-1
-2
0
0
-6
0
0
0
-7
-2
-8
1
2
3
0
-35
-40
22
25
-8
-12
48
-16
-14
11
4
0
-1
30
-15
-12
0
-13
-7
0
22
5
0
10
-20
0
2
0
0
0
0
0
0
0
0
-2
0
0
0
0
0
-39
1
-7
-13
-6
-57
0
19
0
-18
-4
10
29
9
43
-6
-29
-8
-2
-44
4
35
-4
-3
8
12
18
0
-5
23
-26
1
4
-2
3
15
0
15
-2
-12
3
-13
2
19
-25
29
-21
-11
-2
0
0
0
1
2
0
0
-5
1
3
0
-13
0
0
-2
5
17
15
-15
-6
-16
24
5
-17
-14
1
12
35
0
15
6
0
-21
-2
0
0
-5
-1
6
3
0
9
0
0
0
0
-2
-24
-9
0
-38
-35
-8
0
-9
13
0
-20
-4
7
-5
0
0
-13
-3
12
-28
-2
0
0
-2
22
-31
31
26
-11
23
-4
13
2
0
-2
0
5
0
0
-2
-2
0
2
0
-3
0
0
-1
18
11
0
0
26
4
-5
-14
-1
0
26
11
9
7
-3
-15
23
-11
3
-20
0
8
0
-18
-13
9
-7
0
-44
-34
0
3
6
-2
0
0
9
13
3
-5
-1
-1
10
0
-8
21
-4
-1
3
-20
18
0
0
0
9
4
-10
21
0
2
-18
15
0
29
9
0
0
1
0
0
0
3
0
5
0
-1
7
-9
0
0
-10
17
2
4
17
-26
-10
0
-20
-30
0
20
48
-15
37
-23
-6
0
0
-4
0
-17
10
-9
-12
0
4
3
10
-33
3
0
0
0
1
9
13
1
0
-2
0
0
0
0
-12
0
0
0
-18
3
-2
0
0
-6
0
-2
-16
-12
-27
15
10
-5
12
-14
0
0
0
0
0
0
0
0
0
0
0
0
0
0
0
0
1
0
0
-3
3
-1
0
0
0
0
-2
-3
4
0
1
0
0
13
-12
0
-1
7
16
0
-15
1
0
0
33
0
-9
5
-4
1
0
-4
20
5
0
-3
-4
-5
14
13
-17
-4
10
-11
0
0
2
0
0
1
0
0
2
0
0
0
0
0
0
0
0
0
0
0
0
1
1
0
0
0
0
0
0
0
0
0
-4
-32
-29
3
-29
-42
-17
8
20
-7
-24
-8
20
8
15
-5
11
0
0
3
0
6
0
-28
0
-17
3
20
0
0
0
0
0
-4
-17
-18
0
-9
6
0
-14
8
9
-21
0
0
0
-8
14
0
0
9
0
7
2
0
-7
9
0
-2
0
-21
0
6
5
0
9
12
0
-9
0
13
-13
9
0
-9
-5
-4
5
7
9
-26
37
9
30
-22
-29
0
-54
5
-5
1
-8
-3
-4
0
14
12
5
12
6
4
-7
-8
8
0
8
3
0
2
-23
-1
12
0
0
-11
6
0
4
-6
-7
4
10
0
8
1
1
6
17
22
16
14
7
20
-8
-8
16
0
11
7
17
5
-13
-16
-5
-35
0
-28
-4
-9
3
-10
-26
17
2
-1
9
-7
0
0
0
0
-1
0
0
0
0
0
-3
0
2
0
-2
0
0
0
0
-13
7
-1
-3
-7
1
1
0
0
5
0
10
5
1
23
22
12
12
13
10
26
-12
-9
10
0
7
3
10
5
-13
-10
1
8
-11
-23
-1
33
18
-24
4
10
0
-42
-9
28
-56
-2
-11
23
-15
-13
-4
22
13
-26
0
4
-5
-18
20
2
0
7
-1
-5
0
0
-1
0
0
7
0
0
-7
0
0
0
0
0
0
0
0
0
0
0
0
-2
0
0
0
0
5
0
0
0
16
2
-5
-29
16
-6
18
-8
-21
-2
14
-7
-1
10
6
4
0
12
0
23
7
0
-9
-1
0
-2
18
5
-19
9
-8
-5
2
6
-11
0
5
4
0
-30
0
2
0
-3
-12
0
-5
0
0
0
0
0
12
-4
-3
-12
-3
-23
10
12
-6
-19
0
0
-27
30
-4
22
-29
0
13
-9
-13
1
-20
-12
27
-2
0
29
-1
2
-24
-7
-4
-5
2
-20
-9
25
-3
-60
28
10
-11
6
6
-1
0
-4
0
-11
-17
-4
2
-2
10
0
-12
14
0
-33
4
5
-3
21
7
-3
-11
0
-12
12
-25
-11
27
2
0
-11
-21
33
-36
19
3
-49
-7
-21
-62
-38
-41
9
61
-46
35
-45
-18
-6
0
-18
-24
8
13
18
0
-5
0
-22
-15
15
0
0
0
0
10
2
0
4
0
0
2
0
8
1
-6
6
-6
3
-6
0
0
0
0
0
0
0
1
0
0
0
0
0
0
0
-27
-5
33
-8
-34
-26
9
17
22
-4
22
9
1
0
0
0
-6
25
18
0
27
-3
6
1
-28
8
39
0
2
13
3
0
-3
26
1
-6
-5
22
0
-23
-6
-17
20
9
0
0
0
18
0
20
1
11
17
0
-15
0
-2
0
0
2
3
0
0
-13
0
0
0
-1
0
-9
24
0
0
0
0
-1
1
0
0
0
-13
0
9
-32
-7
24
25
17
29
-4
15
1
14
6
0
48
0
0
0
0
0
0
0
0
0
0
0
0
0
0
0
0
8
-1
0
-4
9
0
6
0
-4
4
8
1
0
6
0
4
0
0
0
0
-7
1
1
0
7
0
6
0
0
0
0
1
0
-5
0
-1
0
0
8
0
0
0
20
0
0
9
0
0
41
0
7
0
38
0
-11
-8
41
5
24
0
-14
34
-13
-13
4
-7
0
-2
0
-1
0
0
-2
0
0
0
-2
0
0
-2
4
0
-9
0
1
0
0
0
-4
0
0
-1
0
0
9
0
1
-2
-3
0
0
-5
0
0
6
3
0
-8
3
3
0
0
0
-14
6
-2
-4
0
0
0
36
-29
8
7
28
30
1
9
0
-1
23
-6
-28
-1
-1
-8
37
-11
2
5
25
9
13
25
19
0
-42
14
22
-19
-5
-25
6
2
-6
-10
-5
5
0
-31
-5
0
0
0
0
0
10
0
-18
0
13
10
-17
-2
0
0
5
18
12
-13
13
-1
0
17
29
-29
47
29
-13
26
-14
2
-21
-4
-1
-15
-41
2
29
0
-1
16
-6
-2
3
0
-1
12
0
-1
-16
0
0
9
0
-2
-1
0
0
0
-8
0
0
0
0
0
21
-8
0
4
3
24
5
-8
11
20
0
23
-5
0
26
-3
0
0
0
0
0
4
-5
5
-2
-3
0
0
0
9
-19
0
-1
0
-1
-2
10
2
-4
6
2
-7
0
-6
0
5
0
14
2
0
11
15
-4
-14
0
-27
3
13
-18
-13
-5
0
0
0
0
5
0
0
0
5
0
0
4
0
-4
0
0
3
12
6
-1
12
17
6
0
-25
4
0
13
4
-1
11
-19
-35
0
-3
0
-3
-2
1
-2
0
0
0
-5
-3
-2
0
0
0
66
13
-1
53
32
-43
-26
13
-39
41
-27
-24
82
-26
33
5
0
0
0
0
0
0
0
0
0
0
0
0
0
0
0
0
0
-1
0
0
0
0
2
0
1
0
3
0
0
0
0
0
4
16
10
-1
12
-1
-5
-21
-20
0
11
15
8
0
-3
-16
13
14
0
6
7
19
-3
0
-9
0
8
-10
-4
1
-5
0
2
0
0
0
5
0
1
-4
0
3
2
-1
-2
4
0
2
0
-1
0
-1
0
-1
0
1
0
0
1
0
0
1
0
1
0
-11
-28
14
-5
2
0
-2
-2
5
0
-1
-25
-28
0
0
-2
4
17
0
0
29
-1
-1
46
-14
2
27
-24
37
-28
-1
-21
10
3
0
0
-37
0
7
-22
-6
-3
15
22
-33
17
-4
3
-27
-24
1
-3
-72
-37
-10
27
0
-60
-41
30
-19
25
-18
1
2
-3
0
4
8
0
-3
-2
4
0
0
0
-26
2
0
0
-36
-29
-22
5
-31
0
-11
22
5
-1
-16
0
12
11
-15
-20
12
0
0
2
-41
-3
21
-8
-8
0
23
2
-14
19
-15
0
-1
8
-38
0
-20
-4
5
32
0
26
0
8
18
0
-2
5
16
4
3
7
11
-8
-8
13
0
9
7
0
3
-15
-9
-11
-35
5
-33
-10
2
0
15
21
0
24
4
50
18
-10
43
0
0
0
-10
1
-1
0
0
-12
0
0
0
-1
0
0
0
10
13
0
32
27
-2
-15
5
-6
11
-18
1
9
-18
0
-7
3
-2
0
0
0
0
0
0
-6
3
6
0
-3
2
0
0
3
7
-4
24
0
18
4
-42
25
0
-16
0
2
-22
0
-2
-1
3
0
0
0
-5
0
0
0
-3
-3
0
18
-3
18
-7
-13
12
-1
-11
0
0
1
0
-23
-14
7
25
0
-13
1
-7
-14
-23
-16
3
-48
-2
-21
27
23
-8
-20
0
0
0
0
-18
11
33
-4
23
1
8
0
-16
0
11
-9
-8
7
-12
-1
-20
-19
-17
-33
-13
-17
-18
-3
13
1
-9
-17
-12
25
11
0
0
10
0
0
31
13
4
-13
-32
0
8
-7
2
18
5
-4
-12
0
21
-23
9
7
-21
-21
-7
-34
-20
-30
16
34
-34
15
-45
4
0
0
-4
3
0
0
4
0
0
-3
-3
0
0
0
0
7
21
-7
1
-1
17
5
-4
10
6
5
6
11
3
-8
-6
0
-4
-4
-17
0
-13
0
-5
-26
0
9
-7
0
4
3
2
0
0
-1
0
0
-2
0
0
7
0
0
0
-1
10
0
-3
-2
16
0
8
0
0
0
-7
-26
3
-10
-3
18
-25
0
0
2
5
0
-1
0
4
-2
-7
2
0
1
0
0
2
-1
0
0
0
0
0
0
0
0
-1
0
0
0
0
0
6
0
0
0
10
0
0
13
0
0
-1
16
-1
12
15
-13
1
-5
-7
21
12
38
17
3
9
0
0
-13
29
0
4
-21
0
-28
7
2
-6
-4
-6
-10
0
0
1
43
5
-1
-15
13
17
0
16
8
21
-5
-15
-21
26
37
-24
-22
54
-25
-57
-28
2
-30
6
0
-5
-6
-9
0
22
10
1
2
4
12
-6
-5
26
0
-7
1
0
0
0
0
0
0
0
0
0
0
0
-2
0
0
0
0
8
0
-19
0
2
0
-14
12
-3
4
8
-11
8
0
-3
-2
-10
-7
0
0
0
-2
0
0
0
-7
0
-6
0
0
0
-2
-9
0
-16
0
-7
14
0
6
11
0
-4
0
0
0
0
19
5
8
15
0
0
-11
0
1
1
0
0
0
0
0
0
0
2
0
4
-2
0
0
-5
14
-3
-11
-9
2
4
-2
31
1
2
0
-7
0
0
2
0
-9
8
0
-5
0
-1
0
0
0
0
-11
0
-3
0
5
-3
0
2
0
0
-4
-1
-2
0
0
0
0
2
0
-4
0
0
0
-19
0
0
-6
-4
0
0
-9
0
0
0
0
4
0
1
7
-20
5
3
0
-1
9
0
-12
-1
-4
-47
0
16
18
0
28
20
0
-8
-14
7
-23
32
0
0
0
0
0
0
0
0
0
0
0
0
0
0
0
0
0
0
8
2
22
14
0
0
-1
-6
10
5
-2
0
-11
-19
57
-1
30
19
4
-16
16
7
26
26
0
-41
6
-15
15
18
-30
1
0
-1
-29
-5
0
0
3
-23
-16
3
-16
2
0
0
-12
-19
0
5
-2
-25
-18
1
23
-6
-23
-15
20
-3
10
-11
19
0
-10
32
17
-53
-1
59
-51
57
-28
-3
-15
-51
33
4
0
-4
0
0
14
0
0
0
-7
0
10
-17
-19
4
-12
-7
10
-3
3
0
2
0
-5
2
0
0
0
0
4
-2
0
0
0
-3
-3
0
0
-5
0
0
0
0
1
0
-2
0
0
0
0
0
0
0
3
0
6
0
-4
2
9
0
0
0
0
0
1
-4
-4
4
-2
-8
-5
0
4
0
-8
-13
-13
17
0
-9
0
-1
0
-2
16
-5
-1
-3
-4
0
7
0
0
0
0
-12
0
0
7
19
17
-18
0
0
-15
1
0
25
0
-16
10
0
0
0
0
0
0
0
0
0
0
0
0
0
0
0
0
0
-12
-2
0
0
0
-8
2
8
0
-2
-5
0
24
0
17
-2
24
-24
0
40
0
-15
-16
4
0
2
-7
-10
30
14
0
-4
0
0
0
0
16
-9
-1
-4
-3
0
-1
0
2
-2
7
-6
1
0
0
0
0
8
-1
0
3
0
0
0
0
3
0
0
0
-10
0
-22
0
-3
0
8
15
-6
4
0
0
13
0
1
14
-12
9
11
-23
18
2
7
15
7
14
2
-7
5
-7
23
-20
0
0
13
-12
-17
6
0
-2
10
-32
-8
19
-4
0
0
7
0
-4
63
0
-8
-11
10
22
13
-26
-16
-15
-11
0
-29
-8
-16
77
-34
-30
-10
41
49
30
-1
99
19
100
63
2
62
-3
0
0
0
0
0
0
0
0
0
0
0
0
-2
0
0
13
0
-6
-3
3
0
10
0
0
0
0
0
0
0
1
0
-33
21
-3
-22
-22
0
40
-1
0
1
0
-1
13
5
0
6
-4
-5
17
3
24
-5
-18
6
-11
-12
0
4
-16
-24
18
-15
6
-6
-9
20
0
-21
-14
0
22
1
-12
0
24
0
4
-21
-8
-2
6
7
-7
-8
-3
8
0
-4
0
0
1
8
4
-15
0
0
0
0
0
0
0
2
-1
0
0
0
-3
0
0
0
5
-5
-28
0
5
-7
-6
-17
0
0
7
-22
14
14
10
0
-5
0
-5
3
0
-13
-5
0
5
0
-2
0
10
0
7
0
2
0
4
8
0
1
0
11
-3
8
0
1
-12
0
0
2
-21
0
0
-6
-5
-4
2
3
5
1
-13
0
-3
-12
5
0
-2
-7
0
-1
-1
0
3
1
22
0
1
0
0
0
1
0
0
3
0
0
0
0
0
6
0
0
37
11
0
34
0
9
-6
0
18
-13
0
-3
37
26
8
-3
36
13
0
12
0
10
2
-11
-7
-3
0
-9
0
0
-6
0
4
0
-3
0
2
0
-14
0
-45
0
-3
11
0
-9
0
0
-15
0
2
0
0
27
0
0
0
0
0
0
0
0
0
0
0
0
0
0
0
0
4
-21
-5
8
-8
-9
-9
-4
10
-1
-19
-4
23
21
1
-13
6
0
3
-1
13
0
0
4
-15
0
5
3
1
0
4
-2
-4
7
1
-1
-7
-17
-4
-5
2
-24
-7
24
8
-15
0
-28
0
-1
1
-3
4
-6
0
0
26
0
4
5
3
13
0
5
-4
0
-2
0
0
-5
-3
0
0
0
0
-2
10
-3
13
-2
5
-11
-3
-2
0
-8
0
2
0
11
2
-20
0
11
0
-8
-28
1
-9
0
-17
-1
0
0
0
0
0
0
4
0
0
4
12
13
0
37
17
0
-29
-1
10
0
-14
-11
18
7
-34
-16
-33
0
13
-42
-2
39
2
0
0
0
0
9
0
0
-23
14
0
-13
-6
0
0
-41
-9
-2
-4
-3
0
-20
-1
12
-4
-13
0
0
0
0
2
0
0
0
0
-7
0
13
0
-1
0
0
18
-12
-11
10
-16
-6
-6
8
9
10
-13
-8
27
14
-3
-4
55
0
25
0
10
17
-20
-7
39
-18
16
12
24
36
-11
-29
-5
4
0
0
4
0
0
-1
-4
-3
-1
0
0
0
0
0
0
3
1
-1
2
11
0
18
5
-8
0
8
-21
21
0
0
1
0
2
0
0
0
-3
0
9
2
0
0
0
2
0
0
38
-19
0
2
0
-4
0
14
0
3
-4
0
24
0
1
7
43
-16
20
39
-3
-36
18
22
-29
27
-27
11
9
-51
12
24
0
28
-26
-7
13
-1
0
-2
-56
1
-6
-13
19
-19
22
-18
-5
0
0
0
0
-13
0
7
0
-3
0
2
0
0
14
0
42
9
0
39
21
44
-6
-21
8
4
-10
-5
17
2
-11
-2
13
3
0
8
9
6
-1
-9
7
0
5
0
0
2
0
0
-56
-37
-8
-31
-25
-24
-1
24
11
-23
2
0
21
16
15
-6
-27
0
-5
4
2
-6
-7
0
-13
-2
0
14
0
-14
0
-2
14
0
0
8
-9
-4
-11
3
15
-2
1
-3
2
2
-1
0
1
0
0
0
0
8
0
-4
-8
13
2
-6
0
0
-6
-1
31
-20
21
0
0
0
0
6
-5
24
0
15
-24
-4
-1
16
-3
0
-19
0
-6
0
0
0
25
4
-14
-17
-11
7
-2
-13
0
8
-27
-5
0
2
15
-13
8
7
0
-37
19
9
0
0
0
0
-2
0
-1
4
0
7
13
0
5
0
5
8
-2
7
0
-2
-1
0
0
0
3
3
7
0
4
3
-5
10
0
4
-9
-4
-13
-15
-13
-2
0
1
64
-6
-14
5
13
27
0
0
-13
2
-22
-11
0
-10
0
-4
1
0
-10
0
19
0
5
-26
13
-10
0
-3
19
-44
-14
-24
0
10
0
0
-23
-29
0
-20
0
16
18
4
14
4
-5
0
0
-32
0
28
-2
-2
0
0
19
7
5
30
-7
16
-5
15
-12
35
-44
0
2
0
-4
1
2
4
11
15
0
3
-7
-1
-9
10
22
2
-3
-8
-6
-2
3
-1
-32
0
0
-19
3
-22
0
2
-6
-15
14
3
0
-6
13
-15
-2
-17
12
-19
6
-4
-18
20
12
-35
-14
14
1
-6
0
0
0
0
2
-14
-1
0
0
0
0
0
0
4
0
-25
-18
0
-5
-1
0
-3
0
0
-18
0
0
3
3
-18
12
0
0
0
0
4
6
-29
1
25
-16
0
4
21
0
0
0
0
-1
-3
0
0
-4
-1
-4
4
18
0
-2
0
0
0
0
0
0
0
-31
0
0
1
23
-40
-3
0
-32
-45
50
-27
0
4
6
0
0
-13
7
2
0
0
0
0
0
-11
-6
3
3
4
-4
4
-14
4
-6
0
2
-5
-1
3
0
-11
-8
-1
0
5
0
-8
0
0
0
-1
0
0
0
0
0
0
-7
0
0
25
-16
0
-7
-22
0
-13
18
0
-3
-3
0
0
15
-6
12
-14
5
0
0
0
13
-7
13
37
-8
34
0
-16
-26
0
-3
0
-17
10
0
0
0
-6
5
0
-16
-15
0
8
-9
-19
16
-8
-18
-20
4
-3
-16
-15
13
10
6
-9
-1
4
12
10
10
11
-4
0
3
-17
12
-35
14
15
-7
-7
20
8
0
1
11
6
0
0
0
0
0
0
0
0
0
0
0
0
0
0
0
0
23
-2
0
-35
24
0
34
0
-20
23
0
7
5
0
0
28
-3
-7
-15
-3
0
3
8
0
2
-14
12
-2
-8
0
0
0
66
-2
8
49
7
-48
-21
32
-34
42
-20
-15
80
-29
25
41
-1
2
26
10
1
0
-3
-1
0
-15
9
20
-1
0
0
11
1
-12
-22
-5
9
8
1
-21
-1
14
5
-28
-1
3
-7
0
7
0
-1
19
7
-4
0
0
-16
4
0
-4
-12
-9
4
-11
-3
0
0
0
0
0
0
0
0
0
0
0
0
0
2
0
3
-16
4
-13
10
-13
4
-1
-17
0
7
0
-22
9
-5
-10
32
3
8
23
10
8
-3
0
23
-5
8
0
21
20
-11
0
8
9
2
16
7
23
-13
-17
7
0
0
-1
-16
8
-17
3
0
0
0
0
0
-1
-2
4
3
-1
1
3
0
4
0
0
1
-4
4
22
0
-10
0
24
-6
12
0
0
-15
-17
0
6
23
6
20
12
0
6
0
0
10
5
8
0
-1
3
0
-9
11
-3
5
4
1
0
0
14
-7
14
0
0
-3
0
0
11
0
6
0
0
5
-12
-2
0
-17
0
0
2
19
-16
0
-1
10
-2
3
0
-1
0
-12
0
-43
1
-24
-11
0
-30
0
0
0
6
-8
0
16
-3
-1
-18
-39
-23
0
19
0
-37
4
-24
25
14
23
6
11
28
0
-6
-4
-3
-1
10
-14
1
-4
1
0
4
0
5
0
5
0
-2
3
0
0
0
-1
0
0
-1
11
0
-4
-10
2
-11
4
-6
-2
6
12
-3
0
0
0
0
-13
23
-28
1
0
-37
-12
-1
-51
-13
-32
12
19
-46
31
-40
-1
2
0
-6
0
0
20
2
3
-27
0
2
4
4
-2
-7
0
-4
-5
-1
0
-2
1
-1
12
1
0
-4
-11
4
0
0
-16
-3
-6
-32
-7
-2
7
3
-2
8
2
-13
14
-1
0
0
57
0
-28
32
7
-11
-17
4
5
15
0
0
0
-19
0
-14
-30
-1
20
-40
-7
-8
18
47
1
0
17
27
0
35
3
0
-5
39
0
-1
0
1
12
0
0
3
0
2
-19
-17
-6
10
16
7
11
15
0
22
-22
-8
3
0
8
13
0
0
-15
0
-52
0
-13
0
0
-32
-1
0
-19
-1
-1
1
2
-4
16
-22
1
-5
-5
0
8
-3
0
-5
-11
2
14
-4
0
3
0
-3
11
-4
3
23
0
-7
-6
0
10
3
-9
-8
-22
0
-2
0
0
-2
1
-4
0
-1
-2
0
0
0
0
0
1
0
0
0
-20
0
-1
-6
0
13
0
0
6
0
0
0
-3
4
0
19
7
-1
0
5
-2
1
1
0
0
0
0
0
-1
2
0
0
0
0
-26
-12
-11
0
17
-12
0
0
-10
-15
22
0
0
11
15
0
0
16
5
12
-9
-5
3
0
2
2
-3
8
-2
-10
0
0
0
-3
-5
0
-1
5
5
1
0
0
5
0
0
0
6
6
4
19
-1
8
-33
1
10
0
-4
0
5
9
0
-10
18
2
-7
0
5
13
8
-8
-18
32
3
0
6
1
-14
5
38
-28
-10
12
0
-29
0
3
-40
73
-16
-46
0
0
16
0
0
0
0
0
0
0
0
0
0
0
0
0
-1
0
0
0
0
9
-9
2
0
0
0
-10
1
0
0
2
-11
10
-3
0
0
0
0
0
0
0
0
0
1
0
-2
0
-1
0
0
3
-3
-21
40
-10
-20
-2
3
35
0
-1
11
0
17
8
16
24
8
0
-9
3
-7
24
-3
-1
13
-2
10
20
-14
15
-21
0
-18
10
-23
-18
7
-4
0
1
-25
0
1
1
-32
-1
16
0
0
-20
9
-34
-32
-17
24
35
4
-24
15
8
34
33
-1
38
-39
-39
15
-46
-5
-36
38
0
11
-33
16
30
37
13
9
8
-1
0
2
0
0
30
0
-19
31
1
-9
-7
4
4
-2
0
-18
0
1
-3
0
-3
0
8
11
-4
6
15
4
17
4
7
6
2
-16
9
0
6
0
-15
0
0
0
-6
0
0
0
0
0
14
-42
0
30
1
2
-24
0
-8
5
0
0
0
12
-7
-14
33
-45
-14
-13
20
35
-25
-11
0
-15
-40
38
0
0
4
0
2
10
8
2
7
-3
0
7
-17
7
8
-7
23
-2
-12
-1
0
-1
-27
4
0
19
1
-8
4
13
0
-9
-7
-4
0
6
22
-13
2
0
4
-3
-42
0
0
0
0
19
19
-16
0
5
11
-9
-18
2
21
22
-21
-16
0
2
-40
4
13
-21
20
0
0
0
8
0
-19
0
7
-5
22
-5
-4
19
-3
5
10
21
-56
-35
5
0
1
-5
-10
-2
45
0
-19
-35
38
-4
0
-23
0
0
-4
-17
0
0
9
20
-1
0
0
-11
0
-2
8
-51
0
3
0
-4
-12
9
0
-2
0
12
0
16
-35
11
0
0
8
-4
0
0
3
3
-10
-2
1
0
-9
0
0
0
0
55
-24
-24
41
1
-27
2
23
-2
42
-11
-23
6
-30
30
0
10
31
10
13
0
0
26
0
11
5
-4
-8
0
-34
14
-3
1
-4
-11
-2
1
-6
1
-7
-12
1
18
0
0
8
0
-2
0
0
0
0
23
-35
0
0
-22
-22
-2
0
21
-14
9
-12
0
16
0
-4
0
30
-8
-1
18
0
5
6
-13
30
-11
-27
0
0
-4
-3
0
0
0
-4
0
0
4
0
-24
1
-2
0
0
-2
10
6
1
0
0
13
-4
5
0
0
-6
0
-2
0
29
0
11
44
17
12
-10
-2
0
-2
1
4
-7
-7
-14
-5
0
7
-9
0
-18
19
2
-15
-23
9
-6
-18
18
-31
0
17
0
0
1
0
4
0
-4
0
0
0
3
0
0
0
0
0
1
0
2
0
0
0
0
0
0
0
0
0
0
0
0
0
16
-40
-21
6
-13
-45
-26
0
10
22
-14
-35
9
7
12
0
13
0
4
21
-24
-15
-26
26
21
-18
-41
7
36
18
-7
6
3
-16
-29
0
-2
-29
0
0
13
0
-19
-36
20
0
3
0
47
8
7
49
28
14
-26
-21
4
-7
14
20
24
14
-7
-28
25
0
-8
13
18
12
27
-3
-26
15
0
-2
-5
2
0
10
1
9
-5
-1
-1
17
-2
-15
2
-8
-10
3
0
6
0
-4
-4
28
-29
-9
0
25
43
-57
0
0
0
-3
24
0
0
0
13
5
-7
-5
8
0
4
-9
-24
5
9
-16
11
-9
9
12
4
0
0
4
1
10
-7
0
-18
22
-10
-6
-10
0
-16
18
-34
-1
-16
0
0
-56
-2
5
-56
-17
1
38
-2
-21
20
-16
0
-3
-9
-7
-17
-7
0
-10
-17
27
-9
-22
6
-22
-1
0
6
0
-7
-3
5
3
7
0
-7
0
4
-2
5
0
1
0
0
0
20
24
0
0
0
21
17
5
1
0
-2
-3
0
0
9
3
-7
1
0
0
1
6
-11
18
-3
0
0
-46
0
0
-4
18
-11
0
-10
47
35
-24
-14
0
-7
-32
28
-31
-7
5
0
-10
0
0
0
0
-6
0
24
0
8
0
-30
19
-2
-11
0
0
7
0
0
0
0
0
0
0
5
1
0
0
0
4
2
3
0
0
5
12
0
0
3
0
0
0
0
5
-8
0
-12
0
-23
0
3
-12
0
0
-44
-16
-12
0
47
-51
33
-2
18
0
0
2
2
7
0
-1
7
-2
1
1
0
0
-3
0
6
4
8
10
13
3
-10
-14
0
-1
5
9
-2
1
-4
-2
-29
-7
-30
21
-9
-1
-32
-6
16
-10
-18
-8
0
6
-5
-13
8
9
-10
0
7
15
-6
-1
-9
7
-2
3
-21
2
-4
9
27
-6
14
28
2
-8
0
10
-29
35
-8
0
7
-2
12
11
-16
0
-5
0
0
0
5
-38
-4
0
0
-18
11
-10
0
0
0
-1
0
-4
-6
3
0
0
0
3
0
0
11
4
0
21
0
-30
8
-26
0
0
3
28
7
0
24
0
0
38
0
3
12
14
11
8
1
10
0
-10
16
0
5
2
0
6
-25
-3
-2
1
26
-1
-2
0
-8
0
-1
-25
22
17
-18
23
-2
2
0
0
1
-6
5
0
2
1
2
0
4
0
0
5
0
0
-11
-4
23
-23
0
-12
19
19
28
-23
60
12
39
34
6
33
-8
-1
0
0
-25
-1
0
1
21
0
-4
0
-20
0
0
5
-1
-8
0
-11
0
0
7
1
-4
21
6
0
-5
-15
0
-1
0
0
0
0
2
0
1
0
0
0
0
0
0
0
0
1
0
-1
-9
0
0
-12
10
0
0
2
0
0
0
0
0
1
-9
0
-26
0
15
-1
1
10
4
-4
-5
8
0
0
0
10
0
-21
-15
45
-9
-40
-25
17
32
-20
-17
14
0
0
14
-7
5
43
0
-3
-23
46
8
-4
34
0
7
-3
-10
11
-22
5
6
0
5
21
0
0
-1
0
12
-9
0
0
0
3
0
-10
-13
0
0
-14
3
-23
0
0
4
-8
0
5
4
1
2
-10
0
-1
-7
0
0
2
-29
-12
17
-14
-4
-6
13
16
3
-41
0
-15
-6
0
-1
-32
4
21
0
1
0
-1
0
25
0
0
-7
10
4
5
1
-50
0
18
-21
-14
-17
21
15
0
10
0
-5
3
-3
-9
0
0
0
-5
0
-4
-14
18
4
-3
0
0
4
0
-5
-30
0
-2
2
0
-21
5
21
-6
-34
0
0
-4
-5
-32
40
-28
-18
-33
0
29
15
-4
35
13
40
13
0
26
0
-3
-1
-9
-1
0
0
0
12
-1
15
4
-20
49
-1
0
15
-8
19
30
-1
2
9
41
-4
19
2
-5
-24
-12
0
16
-13
-20
14
-15
-11
6
17
12
1
-8
23
16
-10
1
1
24
-50
14
-15
13
-21
-31
-10
17
14
0
-37
-13
31
-5
6
0
-2
4
1
3
3
-17
0
7
-7
-12
0
0
11
-9
15
0
0
-4
-4
0
0
-1
0
0
0
0
0
0
-9
0
-2
0
4
-18
5
19
-4
-8
-10
0
-18
6
-26
2
25
-14
-1
0
14
-5
0
-1
0
0
0
0
1
1
2
0
0
2
0
3
-3
1
0
1
0
-4
0
0
-3
-1
0
0
1
-3
1
0
0
-3
22
42
1
-5
5
27
-45
4
-29
-3
-6
-33
0
22
3
-44
-8
0
12
0
0
-28
-2
0
1
-27
9
24
6
0
50
24
0
4
0
0
-4
-21
0
0
24
13
0
47
-1
-24
18
0
16
0
36
-8
0
16
-11
3
0
0
0
0
0
0
0
-5
0
-1
0
-4
15
6
-1
3
14
-11
0
16
2
11
3
4
-3
-2
-1
-10
8
-20
-9
4
2
-6
21
3
3
0
21
-39
-10
32
7
-22
-22
-24
-4
39
18
-66
12
55
4
-22
17
0
0
8
-8
-19
-1
2
0
0
0
-6
2
-27
0
18
-18
-7
6
-37
0
-50
4
1
-6
-28
37
23
21
3
16
-1
0
0
3
16
0
16
5
-6
-2
6
0
-5
0
0
-5
12
0
-6
0
-2
0
-2
-1
3
1
7
-1
0
0
4
5
0
-4
0
-30
-12
4
-23
-1
-21
0
-12
6
11
-7
-30
0
-5
1
0
-12
0
0
-9
0
20
-8
24
0
-12
0
-26
0
0
4
-2
8
28
72
-45
-16
30
-66
-3
-14
16
5
-48
35
-15
-7
0
-3
12
23
-51
8
42
-3
19
8
0
6
-13
19
-2
33
15
0
0
19
22
-3
-24
0
0
22
8
-33
27
0
-24
0
2
0
-1
26
0
13
0
-35
9
1
0
1
-3
0
0
0
22
0
0
13
22
3
27
6
52
0
-20
-4
-3
-33
0
-6
0
0
0
-10
0
0
0
-4
4
1
0
0
0
0
0
0
-8
-7
-2
13
-7
0
-18
-3
6
1
-10
-19
-8
0
0
0
2
0
1
0
0
0
0
0
0
1
2
0
-5
2
-1
-11
-9
0
-10
-5
0
0
-12
0
0
-6
-2
25
-5
0
0
0
0
0
-3
0
0
0
0
0
-1
4
0
0
-1
0
1
0
-24
39
23
8
13
-20
15
-40
46
-9
13
-29
-16
-4
20
0
10
13
3
0
12
0
-3
1
0
0
0
-7
4
-8
0
53
-9
3
25
-1
-16
0
47
-26
29
-26
-18
13
-24
11
31
6
0
0
11
33
21
-15
-14
-21
12
28
0
-24
20
-14
-8
9
-18
18
0
1
0
0
7
2
-11
21
7
-14
5
-6
6
5
0
1
-10
3
-8
20
0
-19
0
10
0
0
-3
0
0
2
0
-1
0
2
0
0
0
0
-3
0
0
0
0
0
-1
0
0
17
-7
6
2
0
0
4
0
7
0
-9
0
-22
-10
0
-1
-2
0
-4
5
0
-3
-3
1
0
0
-4
0
0
8
17
0
46
26
0
14
-6
4
0
0
-2
0
-3
0
-21
-2
-26
-4
0
-8
0
-23
-10
7
0
-11
3
5
0
-15
41
0
0
-31
0
0
0
-13
-15
-3
41
-6
-2
-6
21
22
0
-27
0
0
0
-5
0
0
1
0
-6
0
0
-8
0
0
0
0
-18
2
22
-2
-2
-28
-2
26
-7
-1
19
21
11
5
12
26
-1
0
0
-17
-5
-4
4
28
6
16
-3
0
1
12
4
0
-43
2
1
-16
-22
-5
-8
5
6
-40
2
2
3
0
0
3
7
-20
-1
0
4
0
0
0
2
4
21
0
-9
5
-3
-1
-1
0
38
0
-37
0
16
25
-10
-5
0
23
-6
-28
-8
7
-27
11
-4
0
-27
20
-3
-6
20
-9
-10
-3
-6
9
-6
-3
0
-11
0
14
-30
8
-7
14
24
6
-13
-2
4
8
-13
4
0
0
0
0
0
0
0
0
0
0
0
0
0
0
0
0
0
0
0
2
0
0
-5
0
0
0
0
0
0
2
0
0
0
-6
-43
-10
7
2
3
0
-16
24
-23
-29
-11
35
7
-16
0
0
0
-1
0
0
20
0
-1
7
0
0
0
-18
0
0
-5
-3
0
-10
0
-10
0
7
-6
-4
-4
-3
-1
10
11
-6
0
10
0
5
0
4
0
0
0
0
0
4
0
0
-5
0
11
0
-2
11
0
-3
0
0
-3
-1
0
0
12
2
-1
0
1
0
23
0
0
24
0
0
21
-2
22
5
0
12
-9
0
7
5
12
5
7
2
4
14
-1
-6
49
5
4
13
0
11
-13
0
-11
-21
0
-37
0
-3
0
9
5
-22
-1
0
22
-31
5
-37
0
-1
-3
-4
-13
-5
11
3
-2
0
-12
26
-15
0
-3
-2
0
0
15
-5
12
0
0
-8
0
0
0
0
0
-5
0
23
-12
6
-1
14
0
-24
-10
0
-27
-21
15
-20
0
-1
-5
-2
0
-6
0
1
-1
1
1
-1
2
0
-5
2
-1
0
18
0
0
0
0
0
0
0
19
0
0
1
0
1
-2
0
1
-2
0
0
0
-3
-4
1
0
0
0
-1
-2
1
0
-1
0
-5
-14
-2
0
-7
0
6
-23
1
-9
0
-18
9
19
-24
0
12
0
5
5
-12
10
-4
0
-4
-10
0
23
-20
21
-6
0
0
0
-9
3
0
2
0
0
0
0
-5
0
0
1
0
-8
21
-48
12
-3
30
25
-79
0
0
-31
-18
103
-7
-22
33
8
0
35
27
26
0
-7
-7
0
-7
0
0
0
0
-17
-7
-23
1
2
0
0
-13
0
0
-3
-8
0
17
0
-25
9
-18
20
-19
0
-11
3
12
8
-1
0
18
16
-16
-3
2
-16
0
0
0
0
0
0
0
0
0
0
0
0
0
0
0
0
0
13
-6
5
-2
6
0
-4
0
0
0
9
0
-1
17
0
0
0
0
11
0
-10
0
-11
19
38
-12
0
11
14
24
1
0
-14
0
0
0
-21
1
0
0
7
0
-7
0
1
0
-23
0
32
12
9
28
17
-12
7
10
-26
11
3
7
13
-23
-1
11
0
0
15
0
0
0
0
0
2
0
39
1
-7
23
-13
0
-9
8
-17
0
0
0
23
-54
-40
0
-1
-8
0
-8
0
0
0
0
0
-5
3
-8
12
11
-9
0
-1
0
-3
-4
9
-2
0
-5
-13
18
-1
-2
-17
-21
20
-12
-33
-6
67
5
0
-13
0
5
13
-3
1
14
3
-8
61
-27
47
36
9
32
-18
15
0
-38
0
-16
-14
-16
0
0
13
5
19
22
1
0
0
0
-39
0
26
-25
0
-7
-2
0
16
-7
1
19
10
1
20
-2
0
2
-51
0
0
15
13
-14
1
6
0
-24
11
7
-3
1
-3
6
2
3
0
16
10
-3
1
9
-3
0
1
4
0
0
16
-8
47
-3
1
-13
3
17
4
-10
3
1
13
0
0
21
0
-1
5
3
0
0
-1
0
0
0
-10
0
0
-8
0
0
-11
5
0
15
-11
16
-36
2
8
19
-27
0
-43
-10
-22
-7
3
-4
0
-4
1
0
11
0
-2
6
16
-4
-13
7
0
3
19
0
3
0
10
0
28
13
-18
10
21
0
0
0
6
16
14
-31
2
-1
13
-10
6
-2
-13
17
37
-2
-15
0
22
0
-9
-23
-1
6
-12
-10
-7
1
10
0
-10
-5
6
0
10
-8
-4
11
14
-5
-7
19
-2
-7
29
-24
-2
16
12
15
-23
0
29
3
5
35
0
0
-12
3
-41
50
-14
0
-4
-18
0
43
37
0
35
11
0
-4
2
24
-6
32
-18
0
-33
0
0
12
0
0
0
3
0
0
0
1
0
0
-3
0
0
0
0
-5
0
3
0
-8
-18
-5
35
0
0
0
0
0
10
0
0
12
0
0
-15
-13
1
-10
-1
-12
2
0
0
-13
-1
12
0
-2
-1
0
0
-11
-8
0
0
7
9
4
4
-5
0
0
0
3
0
0
10
-5
-14
4
9
19
17
-5
5
0
3
0
0
4
0
21
-2
-4
16
-3
16
1
-6
-6
14
-3
0
0
4
0
32
-51
-1
0
0
-24
-21
-11
0
17
-7
-36
0
18
0
-2
10
12
5
1
24
23
0
0
-35
0
53
1
-46
24
-19
3
53
-10
4
5
0
23
-13
0
29
-6
11
15
18
13
-6
0
0
6
0
6
0
1
0
-11
0
21
0
2
-6
4
0
0
0
0
-17
-37
0
1
33
0
-6
7
14
-6
5
-1
7
30
7
7
-2
0
16
-2
3
0
-19
17
11
-19
-28
0
-2
-5
0
0
0
0
0
-4
0
0
-1
0
0
2
0
-9
3
0
-37
29
-25
8
0
39
23
-17
-5
-17
-29
12
14
-3
-23
16
10
0
24
3
-9
2
0
12
9
7
0
0
0
3
0
4
-28
-4
0
-14
10
-15
0
0
-2
-8
0
9
-21
-3
6
-15
-42
-3
3
-30
-32
18
21
-8
34
-14
24
-11
0
11
-7
18
5
-28
-5
-36
0
-2
2
2
3
0
32
4
-12
50
-1
-9
7
4
4
8
4
6
-3
0
8
0
0
2
3
4
-7
0
0
-6
0
0
0
-9
0
8
-1
0
2
7
13
-15
4
0
43
22
26
-1
1
6
-4
0
13
2
7
0
-14
25
-12
-13
-32
-16
3
-7
-14
-1
3
4
0
1
0
0
-7
2
-1
5
3
0
31
0
0
2
11
-3
-9
-1
0
0
-38
-8
-4
8
0
1
3
-3
0
0
13
31
-5
0
-11
3
-11
0
0
0
6
-9
-4
-16
14
-13
6
0
-12
38
13
-40
0
3
-1
0
4
-13
31
-6
-41
-6
31
47
24
7
22
36
-7
16
0
60
-2
0
0
-11
6
0
-1
0
0
-1
0
0
0
0
9
0
0
0
-11
0
0
-1
-1
-1
-42
0
30
0
0
0
0
0
-25
-6
0
-23
0
-40
0
56
10
-12
19
30
5
3
17
21
5
0
0
0
-4
-2
0
0
3
1
0
0
0
0
-9
0
2
-32
30
0
0
-2
0
3
-1
1
6
0
10
0
0
3
0
0
0
0
0
0
0
0
0
0
0
0
0
0
0
0
0
21
-57
16
-12
5
16
-44
-28
13
-45
-50
66
-28
0
0
7
0
0
0
1
0
0
0
2
4
0
0
-4
-2
0
3
0
21
-9
0
31
-43
-3
-34
-15
-11
-2
0
66
-39
37
-1
18
14
18
9
0
16
0
-5
2
-5
0
5
5
0
-1
-2
6
15
4
0
0
24
0
0
-1
4
-7
-3
-19
-9
-9
-3
10
5
5
48
31
-3
-6
7
0
-2
-7
27
-24
-3
0
-20
-12
-3
9
2
0
-11
0
9
0
0
-4
3
-2
10
14
0
0
0
0
0
0
26
0
-13
0
3
0
-25
-22
0
-14
8
1
15
-2
20
23
-6
-33
-13
10
-4
1
6
-4
11
-16
-48
9
0
-20
-9
-18
0
0
-6
0
15
-24
-6
0
-16
-1
4
-21
4
0
-43
0
0
36
4
0
-22
7
4
0
6
0
0
0
0
17
-21
-2
0
0
8
30
0
0
4
0
22
0
2
19
1
5
7
0
0
0
12
-7
0
45
7
-3
3
0
10
5
-9
7
-10
18
-25
4
0
3
11
-1
-9
0
1
18
-7
3
-6
-1
14
0
-1
-21
-9
10
0
-30
-3
4
4
0
-29
2
-2
0
-17
3
-1
0
0
0
2
-5
-3
2
0
1
0
0
-9
-3
15
-13
0
7
29
4
2
0
0
-15
0
0
18
-22
-5
8
-13
-18
-1
-10
11
4
-22
16
31
-23
-2
-8
0
28
0
-2
3
15
4
-17
-2
18
-4
0
-32
-4
23
-2
-18
24
23
31
6
4
25
0
-11
5
-10
-5
0
0
1
-11
-3
5
9
8
5
33
11
-5
-12
1
-4
12
9
-8
0
-4
-11
0
0
0
-13
-1
-8
6
10
0
-4
4
0
19
6
0
3
24
14
16
12
0
17
-9
-1
9
-5
1
20
-4
5
-19
-19
2
4
16
8
12
3
0
-24
0
-11
-7
16
0
18
-15
-18
0
-1
18
27
1
0
0
0
0
-20
0
0
-2
8
-3
-5
0
0
-10
-30
5
0
18
0
-2
19
2
-15
-6
15
0
0
2
-9
16
-37
-7
-36
-5
-30
27
-3
2
7
30
31
0
22
-23
0
0
1
0
-7
-24
3
0
0
0
0
7
8
3
-5
11
16
3
6
6
-1
-12
-50
12
0
2
15
20
0
-14
-15
0
0
8
0
0
0
0
0
0
-1
4
2
1
0
0
12
0
-7
-6
17
0
-12
-12
-3
23
0
-30
-20
36
-1
8
-28
-17
0
3
-6
16
-21
0
-6
-4
-12
0
6
32
-11
19
-20
2
0
0
11
-4
-15
32
0
-1
7
-14
4
7
0
7
0
0
4
5
15
0
16
4
18
-2
0
0
3
-11
-32
0
0
-5
-1
0
0
0
0
-1
0
0
1
-7
0
-2
-5
3
2
4
1
0
3
21
0
0
-4
0
-4
1
15
-5
0
-15
-12
18
-11
-13
38
-20
-9
0
0
9
23
-2
-19
0
3
-4
-12
-1
18
-3
-18
-9
24
-11
0
-10
0
0
0
-12
0
-4
-12
13
-4
-2
31
0
-3
0
0
-16
1
-36
-8
-11
0
0
-1
22
-6
0
15
8
0
-1
0
10
1
3
-3
0
8
0
-8
-1
0
3
-3
-2
34
0
-8
11
0
0
-7
-14
2
-23
12
7
29
-6
-4
14
2
1
-12
18
0
0
-38
-10
4
-14
-15
-5
0
-1
1
16
-1
-18
-9
-1
0
-1
2
0
-24
10
-23
8
2
0
15
3
-5
-2
-16
0
5
-8
0
10
0
0
-9
0
-17
-5
9
0
0
-4
39
-33
42
-10
-17
0
-22
13
19
10
15
-8
17
15
0
-30
-32
8
-13
0
24
16
5
0
-50
-11
35
6
-6
-2
-6
28
14
-13
-16
27
20
25
0
3
8
-25
3
0
1
0
16
2
0
0
0
0
0
0
-8
0
0
0
0
0
0
-16
-43
0
12
40
0
4
0
3
32
0
7
16
13
33
0
17
0
0
15
-1
6
0
14
-5
-3
0
0
0
-16
0
20
-17
0
15
10
11
-7
-16
-24
2
25
-7
-5
16
4
-21
12
6
17
-4
-20
5
0
-13
-23
46
-13
-6
-2
48
2
18
30
12
8
-21
0
10
-17
22
10
-15
-1
-5
-14
0
0
-6
-7
5
-11
4
0
-9
5
6
-2
0
3
1
0
0
29
-23
9
-19
17
16
-28
12
0
-10
-26
11
-22
-4
0
7
0
0
-3
-6
-5
0
-1
0
0
11
7
15
4
0
5
0
0
0
0
0
-4
-2
0
0
-2
0
0
0
0
0
0
0
0
0
0
1
-1
0
0
0
4
3
-5
0
3
0
-2
-7
0
0
1
0
0
-4
0
5
-7
0
6
0
0
-4
0
0
5
0
-3
4
-10
13
-2
-22
3
15
-1
2
-4
0
0
-1
0
0
0
0
2
0
0
0
0
2
1
-6
-18
0
-1
-3
-5
0
-3
0
0
-4
2
0
-1
0
-1
-5
7
0
0
0
0
0
0
-2
-8
5
25
-8
23
0
-14
-11
2
0
3
-18
23
-23
-30
-2
39
27
-29
3
0
0
-30
26
-30
3
9
0
0
-22
-4
-4
-6
42
-14
-10
0
0
-7
11
0
0
0
3
0
0
2
3
0
0
0
0
0
3
0
-9
0
0
0
-8
-4
-2
7
0
-2
-20
0
7
0
-12
-1
-2
-9
0
-1
39
-4
19
8
16
7
-12
-10
23
-21
21
8
42
31
-5
-11
0
-8
2
-3
0
0
12
0
-12
18
1
1
-2
0
9
0
-2
3
0
0
5
-6
0
4
-11
0
0
2
7
-26
12
-8
-32
27
2
-13
-22
6
22
-1
5
-12
0
-5
3
-16
0
0
-25
5
-12
0
2
-26
-4
0
-18
-6
0
9
8
-42
13
-19
5
0
-2
-3
0
-2
1
0
0
0
4
-3
-4
1
0
0
-2
0
0
0
0
1
0
-2
-2
3
4
6
-16
0
0
8
-24
20
2
-32
21
11
-11
0
-16
-38
9
25
-43
-22
-3
-1
-11
43
0
-43
-14
-7
40
3
10
-21
-5
51
21
-26
0
38
0
5
-7
-1
-5
0
0
0
9
0
-1
0
0
0
-6
0
9
7
0
8
0
0
-1
0
-14
8
-20
-12
-6
-15
0
0
0
0
-1
0
0
-3
0
0
0
0
-6
0
8
2
0
0
26
0
11
8
46
-3
0
9
0
-3
0
0
0
0
2
0
-11
-14
12
0
8
-14
-4
0
10
3
16
1
-3
4
0
0
11
-19
0
0
0
-2
-1
-8
-9
0
-2
-24
-19
0
6
-7
13
4
0
35
-8
-2
0
-7
-25
41
-28
-33
12
-15
-7
24
-41
5
-1
0
-18
0
15
11
6
-29
-18
-1
24
0
0
11
0
0
4
-17
5
10
0
-1
-15
1
7
2
-17
10
0
-1
4
2
1
0
0
1
0
0
5
0
2
1
-4
2
-1
0
12
6
2
5
6
0
-6
0
0
0
-1
9
0
-18
-7
0
22
36
-1
0
30
17
0
9
5
-8
30
-3
-35
45
-9
0
-3
-22
4
0
10
0
-11
-4
-11
2
-30
-3
10
10
0
-10
-4
0
28
-17
-1
26
0
0
15
-10
6
25
-13
6
-10
-12
0
12
-3
13
-5
-9
-3
3
6
-7
-16
-5
127
-24
15
0
-108
-78
18
-51
-127
-11
5
-18
31
48
-124
5
127
-99
-2
-9
